{"learner":{"attributes":{},"feature_names":[],"feature_types":[],"gradient_booster":{"model":{"cats":{"enc":[],"feature_segments":[],"sorted_idx":[]},"gbtree_model_param":{"num_parallel_tree":"1","num_trees":"300"},"iteration_indptr":[0,1,2,3,4,5,6,7,8,9,10,11,12,13,14,15,16,17,18,19,20,21,22,23,24,25,26,27,28,29,30,31,32,33,34,35,36,37,38,39,40,41,42,43,44,45,46,47,48,49,50,51,52,53,54,55,56,57,58,59,60,61,62,63,64,65,66,67,68,69,70,71,72,73,74,75,76,77,78,79,80,81,82,83,84,85,86,87,88,89,90,91,92,93,94,95,96,97,98,99,100,101,102,103,104,105,106,107,108,109,110,111,112,113,114,115,116,117,118,119,120,121,122,123,124,125,126,127,128,129,130,131,132,133,134,135,136,137,138,139,140,141,142,143,144,145,146,147,148,149,150,151,152,153,154,155,156,157,158,159,160,161,162,163,164,165,166,167,168,169,170,171,172,173,174,175,176,177,178,179,180,181,182,183,184,185,186,187,188,189,190,191,192,193,194,195,196,197,198,199,200,201,202,203,204,205,206,207,208,209,210,211,212,213,214,215,216,217,218,219,220,221,222,223,224,225,226,227,228,229,230,231,232,233,234,235,236,237,238,239,240,241,242,243,244,245,246,247,248,249,250,251,252,253,254,255,256,257,258,259,260,261,262,263,264,265,266,267,268,269,270,271,272,273,274,275,276,277,278,279,280,281,282,283,284,285,286,287,288,289,290,291,292,293,294,295,296,297,298,299,300],"tree_info":[0,0,0,0,0,0,0,0,0,0,0,0,0,0,0,0,0,0,0,0,0,0,0,0,0,0,0,0,0,0,0,0,0,0,0,0,0,0,0,0,0,0,0,0,0,0,0,0,0,0,0,0,0,0,0,0,0,0,0,0,0,0,0,0,0,0,0,0,0,0,0,0,0,0,0,0,0,0,0,0,0,0,0,0,0,0,0,0,0,0,0,0,0,0,0,0,0,0,0,0,0,0,0,0,0,0,0,0,0,0,0,0,0,0,0,0,0,0,0,0,0,0,0,0,0,0,0,0,0,0,0,0,0,0,0,0,0,0,0,0,0,0,0,0,0,0,0,0,0,0,0,0,0,0,0,0,0,0,0,0,0,0,0,0,0,0,0,0,0,0,0,0,0,0,0,0,0,0,0,0,0,0,0,0,0,0,0,0,0,0,0,0,0,0,0,0,0,0,0,0,0,0,0,0,0,0,0,0,0,0,0,0,0,0,0,0,0,0,0,0,0,0,0,0,0,0,0,0,0,0,0,0,0,0,0,0,0,0,0,0,0,0,0,0,0,0,0,0,0,0,0,0,0,0,0,0,0,0,0,0,0,0,0,0,0,0,0,0,0,0,0,0,0,0,0,0,0,0,0,0,0,0,0,0,0,0,0,0,0,0,0,0,0,0,0,0,0,0,0,0],"trees":[{"base_weights":[7.817804E-5,3.257279E-4,-1.1607966E-2,1.1929766E-2,1.0634478E-4,9.0247635E-3,-1.9237608E-2,1.954897E-2,-5.694592E-3,-3.4830768E-3,6.260663E-4,8.484362E-4,-1.9274515E-3,7.8333606E-4,-1.1660064E-3,1.1627757E-3,4.0876382E-4,-3.560372E-4,2.5040825E-7,-1.4111486E-4,-1.6233893E-3,2.4089157E-5,8.004059E-4,3.608297E-6,-1.4816716E-4,-3.1934742E-5,9.0684945E-5],"categories":[],"categories_nodes":[],"categories_segments":[],"categories_sizes":[],"default_left":[0,0,0,0,0,0,0,0,0,0,0,0,0,0,0,0,0,0,0,0,0,0,0,0,0,0,0],"id":0,"left_children":[1,3,5,7,9,11,13,15,17,19,21,-1,23,25,-1,-1,-1,-1,-1,-1,-1,-1,-1,-1,-1,-1,-1],"loss_changes":[2.2313164E-3,1.9207578E-3,2.69234E-3,1.9912932E-3,1.3863815E-3,4.677262E-4,9.990986E-4,2.3145042E-4,4.0678133E-5,1.7087015E-3,1.4326597E-3,0E0,6.428013E-6,5.554023E-6,0E0,0E0,0E0,0E0,0E0,0E0,0E0,0E0,0E0,0E0,0E0,0E0,0E0],"parents":[2147483647,0,0,1,1,2,2,3,3,4,4,5,5,6,6,7,7,8,8,9,9,10,10,12,12,13,13],"right_children":[2,4,6,8,10,12,14,16,18,20,22,-1,24,26,-1,-1,-1,-1,-1,-1,-1,-1,-1,-1,-1,-1,-1],"split_conditions":[2.9097323E0,-2.8257263E0,-4.213891E-1,-8.8499235E-3,3.5305593E-2,-1.3704754E0,-3.111178E-1,1.035992E-1,7.406102E-2,3.4779758E0,4.1567364E0,8.484362E-4,2.7486214E-1,3.5671097E-1,-1.1660064E-3,1.1627757E-3,4.0876382E-4,-3.560372E-4,2.5040825E-7,-1.4111486E-4,-1.6233893E-3,2.4089157E-5,8.004059E-4,3.608297E-6,-1.4816716E-4,-3.1934742E-5,9.0684945E-5],"split_indices":[198,198,156,218,246,9,4,43,5,1,116,0,1,1,0,0,0,0,0,0,0,0,0,0,0,0,0],"split_type":[0,0,0,0,0,0,0,0,0,0,0,0,0,0,0,0,0,0,0,0,0,0,0,0,0,0,0],"sum_hessian":[7.69E2,7.54E2,1.5E1,1.3E1,7.41E2,4E0,1.1E1,9E0,4E0,9.3E1,6.48E2,2E0,2E0,2E0,9E0,6E0,3E0,3E0,1E0,9.2E1,1E0,6.43E2,5E0,1E0,1E0,1E0,1E0],"tree_param":{"num_deleted":"0","num_feature":"280","num_nodes":"27","size_leaf_vector":"1"}},{"base_weights":[-6.774205E-5,1.1070841E-4,-1.1512668E-2,7.7719456E-3,-1.5681222E-4,-1.3483447E-3,3.378479E-3,2.826858E-3,1.7131604E-3,-6.849321E-5,-8.250393E-4,-2.1416757E-3,5.7262887E-4,4.372797E-4,-4.681985E-4,4.7108438E-4,-1.3863066E-5,-1.5966913E-4,5.16288E-5],"categories":[],"categories_nodes":[],"categories_segments":[],"categories_sizes":[],"default_left":[0,0,0,0,0,0,0,0,0,0,0,0,0,0,0,0,0,0,0],"id":1,"left_children":[1,3,5,7,9,-1,11,13,-1,15,-1,17,-1,-1,-1,-1,-1,-1,-1],"loss_changes":[1.5963517E-3,1.5793637E-3,2.8526806E-3,3.309185E-3,1.074265E-3,0E0,3.3651962E-4,1.741442E-3,0E0,1.4726975E-3,0E0,1.9989324E-5,0E0,0E0,0E0,0E0,0E0,0E0,0E0],"parents":[2147483647,0,0,1,1,2,2,3,3,4,4,6,6,7,7,9,9,11,11],"right_children":[2,4,6,8,10,-1,12,14,-1,16,-1,18,-1,-1,-1,-1,-1,-1,-1],"split_conditions":[3.0916104E0,-1.909448E0,3.9648365E-2,1.4492961E0,4.2737184E0,-1.3483447E-3,-3.3405449E-3,1.1894879E0,1.7131604E-3,-1.3917716E0,-8.250393E-4,4.279301E0,5.7262887E-4,4.372797E-4,-4.681985E-4,4.7108438E-4,-1.3863066E-5,-1.5966913E-4,5.16288E-5],"split_indices":[2,198,260,262,198,0,8,238,0,205,0,2,0,0,0,0,0,0,0],"split_type":[0,0,0,0,0,0,0,0,0,0,0,0,0,0,0,0,0,0,0],"sum_hessian":[7.8E2,7.69E2,1.1E1,2.5E1,7.44E2,5E0,6E0,2.2E1,3E0,7.41E2,3E0,4E0,2E0,1.5E1,7E0,1.5E1,7.26E2,3E0,1E0],"tree_param":{"num_deleted":"0","num_feature":"280","num_nodes":"19","size_leaf_vector":"1"}},{"base_weights":[2.057281E-4,3.554618E-4,-9.522191E-4,8.225624E-3,2.5285408E-5,1.7235784E-2,-2.5342642E-3,1.3372679E-4,-1.996136E-2,1.4351893E-3,3.1689028E-4,1.6835691E-4,-5.973779E-4,-1.5870655E-6,6.760892E-4,-4.4949975E-5,-1.3007907E-3],"categories":[],"categories_nodes":[],"categories_segments":[],"categories_sizes":[],"default_left":[0,0,0,0,0,0,0,0,0,0,0,0,0,0,0,0,0],"id":2,"left_children":[1,3,-1,5,7,9,11,13,15,-1,-1,-1,-1,-1,-1,-1,-1],"loss_changes":[2.2406217E-3,2.0006693E-3,0E0,3.049078E-3,1.6065302E-3,1.9427072E-3,8.735035E-4,1.6331027E-3,4.382605E-4,0E0,0E0,0E0,0E0,0E0,0E0,0E0,0E0],"parents":[2147483647,0,0,1,1,3,3,4,4,5,5,6,6,7,7,8,8],"right_children":[2,4,-1,6,8,10,12,14,16,-1,-1,-1,-1,-1,-1,-1,-1],"split_conditions":[4.2737184E0,-1.909448E0,-9.522191E-4,-1.7550644E-1,5.0790877E0,3.6643672E-1,3.5309363E-2,3.0119805E0,6.768723E-1,1.4351893E-3,3.1689028E-4,1.6835691E-4,-5.973779E-4,-1.5870655E-6,6.760892E-4,-4.4949975E-5,-1.3007907E-3],"split_indices":[198,198,0,5,99,187,246,99,1,0,0,0,0,0,0,0,0],"split_type":[0,0,0,0,0,0,0,0,0,0,0,0,0,0,0,0,0],"sum_hessian":[7.74E2,7.69E2,5E0,3E1,7.39E2,1.6E1,1.4E1,7.36E2,3E0,7E0,9E0,9E0,5E0,7.28E2,8E0,1E0,2E0],"tree_param":{"num_deleted":"0","num_feature":"280","num_nodes":"17","size_leaf_vector":"1"}},{"base_weights":[-2.6968946E-5,1.3234143E-4,-1.3883975E-2,3.3842544E-3,-3.5969875E-4,5.9239846E-3,-3.0915141E-2,2.0723063E-3,2.8683973E-2,-1.5126441E-5,-5.115966E-3,-9.7268214E-4,5.4229953E-4,-1.7008235E-3,-4.6274537E-4,1.0930876E-3,7.194488E-5,-9.7625474E-5,1.8415612E-3,-1.2453398E-5,7.32726E-4,-7.396477E-5,-7.1168615E-4,-1.2332892E-4,5.0377752E-5],"categories":[],"categories_nodes":[],"categories_segments":[],"categories_sizes":[],"default_left":[0,0,0,0,0,0,0,0,0,0,0,0,0,0,0,0,0,0,0,0,0,0,0,0,0],"id":3,"left_children":[1,3,5,7,9,11,13,15,17,19,21,23,-1,-1,-1,-1,-1,-1,-1,-1,-1,-1,-1,-1,-1],"loss_changes":[1.7480213E-3,1.2540737E-3,3.2193149E-3,3.3593257E-3,1.1159985E-3,1.8027685E-4,2.1058135E-5,1.2094891E-3,1.3199286E-3,2.1862998E-3,1.5042248E-3,1.1360019E-5,0E0,0E0,0E0,0E0,0E0,0E0,0E0,0E0,0E0,0E0,0E0,0E0,0E0],"parents":[2147483647,0,0,1,1,2,2,3,3,4,4,5,5,6,6,7,7,8,8,9,9,10,10,11,11],"right_children":[2,4,6,8,10,12,14,16,18,20,22,24,-1,-1,-1,-1,-1,-1,-1,-1,-1,-1,-1,-1,-1],"split_conditions":[3.809313E0,-7.2270155E-1,-4.850796E-1,2.0859768E0,7.957253E-3,3.0661961E-2,2.0213752E0,-1.7360756E0,4.8433125E-1,2.7500942E0,1.0662082E-2,-1.0393722E0,5.4229953E-4,-1.7008235E-3,-4.6274537E-4,1.0930876E-3,7.194488E-5,-9.7625474E-5,1.8415612E-3,-1.2453398E-5,7.32726E-4,-7.396477E-5,-7.1168615E-4,-1.2332892E-4,5.0377752E-5],"split_indices":[2,240,74,2,106,5,4,173,1,197,200,0,0,0,0,0,0,0,0,0,0,0,0,0,0],"split_type":[0,0,0,0,0,0,0,0,0,0,0,0,0,0,0,0,0,0,0,0,0,0,0,0,0],"sum_hessian":[7.9E2,7.82E2,8E0,1.02E2,6.8E2,4E0,4E0,9.8E1,4E0,6.35E2,4.5E1,2E0,2E0,3E0,1E0,2E0,9.6E1,1E0,3E0,6.26E2,9E0,3.3E1,1.2E1,1E0,1E0],"tree_param":{"num_deleted":"0","num_feature":"280","num_nodes":"25","size_leaf_vector":"1"}},{"base_weights":[2.7406184E-4,7.6548117E-3,-1.8515855E-6,1.8491715E-2,1.5482936E-3,1.4860739E-4,-1.5993226E-2,3.2241843E-3,1.4066353E-3,-6.7475E-3,8.195007E-3,6.0024904E-5,1.1004236E-3,-6.087111E-3,-1.3586171E-3,-3.4095177E-5,3.027772E-4,-5.8589732E-5,-6.712092E-4,6.3874846E-4,7.203E-6,1.0172072E-5,-7.513887E-4,-4.1977106E-5,-3.5945588E-4],"categories":[],"categories_nodes":[],"categories_segments":[],"categories_sizes":[],"default_left":[0,0,0,0,0,0,0,0,0,0,0,0,0,0,0,0,0,0,0,0,0,0,0,0,0],"id":4,"left_children":[1,3,5,7,9,11,13,15,-1,17,19,21,-1,23,-1,-1,-1,-1,-1,-1,-1,-1,-1,-1,-1],"loss_changes":[1.5823343E-3,1.8242903E-3,1.806911E-3,1.3812359E-3,1.1029514E-3,1.4393613E-3,6.097901E-4,5.9426995E-5,0E0,3.1931457E-4,4.0376285E-4,1.6086266E-3,0E0,2.287871E-5,0E0,0E0,0E0,0E0,0E0,0E0,0E0,0E0,0E0,0E0,0E0],"parents":[2147483647,0,0,1,1,2,2,3,3,4,4,5,5,6,6,7,7,9,9,10,10,11,11,13,13],"right_children":[2,4,6,8,10,12,14,16,-1,18,20,22,-1,24,-1,-1,-1,-1,-1,-1,-1,-1,-1,-1,-1],"split_conditions":[-1.909448E0,-2.3457457E-1,4.00176E0,-3.8136877E-2,-1.252797E-2,3.4978416E0,2.601721E-2,-3.2648858E-1,1.4066353E-3,-6.1795842E-2,5.18244E-2,2.6738918E0,1.1004236E-3,-8.86622E-1,-1.3586171E-3,-3.4095177E-5,3.027772E-4,-5.8589732E-5,-6.712092E-4,6.3874846E-4,7.203E-6,1.0172072E-5,-7.513887E-4,-4.1977106E-5,-3.5945588E-4],"split_indices":[198,170,99,204,156,99,22,6,0,7,10,99,0,2,0,0,0,0,0,0,0,0,0,0,0],"split_type":[0,0,0,0,0,0,0,0,0,0,0,0,0,0,0,0,0,0,0,0,0,0,0,0,0],"sum_hessian":[7.76E2,2.7E1,7.49E2,9E0,1.8E1,7.43E2,6E0,4E0,5E0,8E0,1E1,7.41E2,2E0,4E0,2E0,2E0,2E0,5E0,3E0,6E0,4E0,7.35E2,6E0,1E0,3E0],"tree_param":{"num_deleted":"0","num_feature":"280","num_nodes":"25","size_leaf_vector":"1"}},{"base_weights":[1.7521327E-4,1.1615996E-2,-6.305426E-5,-2.3446795E-4,1.8749721E-2,-1.3017468E-4,1.2871355E-3,-6.84192E-3,3.776897E-3,1.2165532E-3,4.294941E-3,-8.990938E-3,5.8274716E-5,-9.924115E-5,-4.1390286E-4,-1.52306475E-5,2.4367138E-4,-1.18780954E-4,3.6551672E-4,-1.0089562E-3,4.1383025E-4,4.624888E-4,-7.053899E-6],"categories":[],"categories_nodes":[],"categories_segments":[],"categories_sizes":[],"default_left":[0,0,0,0,0,0,0,0,0,0,0,0,0,0,0,0,0,0,0,0,0,0,0],"id":5,"left_children":[1,3,5,7,9,11,-1,13,15,-1,17,19,21,-1,-1,-1,-1,-1,-1,-1,-1,-1,-1],"loss_changes":[2.1378908E-3,1.3570033E-3,1.3353309E-3,2.1137552E-4,7.022701E-4,1.2829347E-3,0E0,4.4959015E-6,2.3862012E-5,0E0,9.782401E-5,3.2580942E-3,1.3810648E-3,0E0,0E0,0E0,0E0,0E0,0E0,0E0,0E0,0E0,0E0],"parents":[2147483647,0,0,1,1,2,2,3,3,4,4,5,5,7,7,8,8,10,10,11,11,12,12],"right_children":[2,4,6,8,10,12,-1,14,16,-1,18,20,22,-1,-1,-1,-1,-1,-1,-1,-1,-1,-1],"split_conditions":[-2.8257263E0,-6.3666695E-1,4.274659E0,3.4561E-2,8.125845E-1,-2.4520595E0,1.2871355E-3,-1.0919741E0,-3.367024E0,1.2165532E-3,-1.0393722E0,-3.0365384E-1,-2.586231E0,-9.924115E-5,-4.1390286E-4,-1.52306475E-5,2.4367138E-4,-1.18780954E-4,3.6551672E-4,-1.0089562E-3,4.1383025E-4,4.624888E-4,-7.053899E-6],"split_indices":[198,2,100,148,103,2,0,0,2,0,0,131,100,0,0,0,0,0,0,0,0,0,0],"split_type":[0,0,0,0,0,0,0,0,0,0,0,0,0,0,0,0,0,0,0,0,0,0,0],"sum_hessian":[7.83E2,1.5E1,7.68E2,6E0,9E0,7.67E2,1E0,2E0,4E0,6E0,3E0,1.5E1,7.52E2,1E0,1E0,1E0,3E0,1E0,2E0,9E0,6E0,1.5E1,7.37E2],"tree_param":{"num_deleted":"0","num_feature":"280","num_nodes":"23","size_leaf_vector":"1"}},{"base_weights":[3.4065666E-5,2.1719656E-4,-1.5210279E-2,9.143476E-3,-5.2852003E-5,5.7197534E-3,-1.654913E-3,-5.5488558E-3,1.9741926E-2,-8.437165E-3,7.5672084E-5,-8.90281E-4,1.0423203E-2,-7.806981E-4,3.8195212E-4,2.4813155E-4,1.1839726E-3,-9.153708E-4,1.4196399E-4,-7.768375E-6,2.785106E-4,-1.1581143E-4,4.9040358E-5,6.179238E-4,1.6381648E-4],"categories":[],"categories_nodes":[],"categories_segments":[],"categories_sizes":[],"default_left":[0,0,0,0,0,0,0,0,0,0,0,0,0,0,0,0,0,0,0,0,0,0,0,0,0],"id":6,"left_children":[1,3,5,7,9,11,-1,13,15,17,19,21,23,-1,-1,-1,-1,-1,-1,-1,-1,-1,-1,-1,-1],"loss_changes":[2.1166287E-3,1.8059696E-3,3.5588772E-3,3.535296E-3,7.851212E-4,1.6472941E-4,0E0,1.4466515E-3,6.390074E-4,1.2762946E-3,9.1233494E-4,1.0275993E-5,1.0030053E-6,0E0,0E0,0E0,0E0,0E0,0E0,0E0,0E0,0E0,0E0,0E0,0E0],"parents":[2147483647,0,0,1,1,2,2,3,3,4,4,5,5,7,7,8,8,9,9,10,10,11,11,12,12],"right_children":[2,4,6,8,10,12,-1,14,16,18,20,22,24,-1,-1,-1,-1,-1,-1,-1,-1,-1,-1,-1,-1],"split_conditions":[3.809313E0,-1.9070373E0,-4.850796E-1,3.5306945E-2,-2.824503E0,7.1042206E-4,-1.654913E-3,7.505603E-1,3.2862154E-1,-9.781931E-2,1.4626555E0,-1.0393722E0,-8.2905716E-1,-7.806981E-4,3.8195212E-4,2.4813155E-4,1.1839726E-3,-9.153708E-4,1.4196399E-4,-7.768375E-6,2.785106E-4,-1.1581143E-4,4.9040358E-5,6.179238E-4,1.6381648E-4],"split_indices":[2,100,74,246,2,19,0,206,197,268,1,0,0,0,0,0,0,0,0,0,0,0,0,0,0],"split_type":[0,0,0,0,0,0,0,0,0,0,0,0,0,0,0,0,0,0,0,0,0,0,0,0,0],"sum_hessian":[7.56E2,7.48E2,8E0,2.1E1,7.27E2,4E0,4E0,9E0,1.2E1,1E1,7.17E2,2E0,2E0,5E0,4E0,3E0,9E0,5E0,5E0,6.89E2,2.8E1,1E0,1E0,1E0,1E0],"tree_param":{"num_deleted":"0","num_feature":"280","num_nodes":"25","size_leaf_vector":"1"}},{"base_weights":[-2.084691E-4,9.549696E-3,-3.9804628E-4,1.5519014E-2,-5.492743E-3,-3.0805923E-3,2.9289883E-4,2.0697726E-2,1.2818355E-3,-3.3409696E-4,-1.8398981E-5,-2.2505324E-2,-2.031066E-3,1.6812839E-2,1.0222042E-4,3.677446E-4,1.1959762E-3,-1.00309226E-4,1.5232852E-4,-1.3316532E-3,1.5972105E-4,-3.221307E-4,-4.8729717E-6,1.3277069E-3,-2.5134682E-4,9.838519E-7,1.2551514E-3],"categories":[],"categories_nodes":[],"categories_segments":[],"categories_sizes":[],"default_left":[0,0,0,0,0,0,0,0,0,0,0,0,0,0,0,0,0,0,0,0,0,0,0,0,0,0,0],"id":7,"left_children":[1,3,5,7,9,11,13,15,17,-1,-1,19,21,23,25,-1,-1,-1,-1,-1,-1,-1,-1,-1,-1,-1,-1],"loss_changes":[1.4559926E-3,1.4321385E-3,1.4299446E-3,7.8450167E-4,2.8012917E-5,3.1753993E-3,1.9323789E-3,1.6797753E-4,2.9321916E-5,0E0,0E0,9.337319E-4,1.2874323E-3,1.6227202E-3,1.2542059E-3,0E0,0E0,0E0,0E0,0E0,0E0,0E0,0E0,0E0,0E0,0E0,0E0],"parents":[2147483647,0,0,1,1,2,2,3,3,4,4,5,5,6,6,7,7,8,8,11,11,12,12,13,13,14,14],"right_children":[2,4,6,8,10,12,14,16,18,-1,-1,20,22,24,26,-1,-1,-1,-1,-1,-1,-1,-1,-1,-1,-1,-1],"split_conditions":[-2.8257263E0,3.9654627E-2,3.5306178E-2,-3.3403742E-3,7.406102E-2,-2.4509714E0,-2.586231E0,-4.3581194E-1,5.3551877E-1,-3.3409696E-4,-1.8398981E-5,1.3993329E0,-6.4691144E-1,1.08434826E-1,4.274659E0,3.677446E-4,1.1959762E-3,-1.00309226E-4,1.5232852E-4,-1.3316532E-3,1.5972105E-4,-3.221307E-4,-4.8729717E-6,1.3277069E-3,-2.5134682E-4,9.838519E-7,1.2551514E-3],"split_indices":[198,260,246,8,5,100,100,144,4,0,0,0,52,44,100,0,0,0,0,0,0,0,0,0,0,0,0],"split_type":[0,0,0,0,0,0,0,0,0,0,0,0,0,0,0,0,0,0,0,0,0,0,0,0,0,0,0],"sum_hessian":[7.84E2,1.4E1,7.7E2,1E1,4E0,1.57E2,6.13E2,7E0,3E0,3E0,1E0,7E0,1.5E2,6E0,6.07E2,2E0,5E0,1E0,2E0,6E0,1E0,4.5E1,1.05E2,4E0,2E0,6.06E2,1E0],"tree_param":{"num_deleted":"0","num_feature":"280","num_nodes":"27","size_leaf_vector":"1"}},{"base_weights":[1.578415E-4,1.1149138E-2,1.654393E-5,2.4195503E-2,-6.7363284E-3,1.6665157E-4,-1.1543399E-2,1.389439E-3,1.5572803E-4,-4.6941204E-4,9.678306E-5,3.1139536E-4,-9.002281E-3,-1.0922814E-3,-4.007354E-3,6.744331E-6,3.1091538E-4,-7.6780154E-4,1.4820865E-4,3.0054186E-6,-2.8231804E-4],"categories":[],"categories_nodes":[],"categories_segments":[],"categories_sizes":[],"default_left":[0,0,0,0,0,0,0,0,0,0,0,0,0,0,0,0,0,0,0,0,0],"id":8,"left_children":[1,3,5,7,9,11,13,-1,-1,-1,-1,15,17,-1,19,-1,-1,-1,-1,-1,-1],"loss_changes":[1.2236137E-3,2.4963922E-3,1.3536725E-3,3.679481E-4,1.3315925E-4,1.0247058E-3,6.888375E-4,0E0,0E0,0E0,0E0,7.90511E-4,9.5790013E-4,0E0,4.7005575E-5,0E0,0E0,0E0,0E0,0E0,0E0],"parents":[2147483647,0,0,1,1,2,2,3,3,4,4,5,5,6,6,11,11,12,12,14,14],"right_children":[2,4,6,8,10,12,14,-1,-1,-1,-1,16,18,-1,20,-1,-1,-1,-1,-1,-1],"split_conditions":[-2.8230975E0,-4.7120783E-1,2.9144778E0,1.2374663E0,-8.571569E-1,2.9097323E0,-3.6699513E-1,1.389439E-3,1.5572803E-4,-4.6941204E-4,9.678306E-5,2.1158924E0,4.0841115E-1,-1.0922814E-3,3.9309174E-2,6.744331E-6,3.1091538E-4,-7.6780154E-4,1.4820865E-4,3.0054186E-6,-2.8231804E-4],"split_indices":[100,76,2,0,0,198,71,0,0,0,0,197,86,0,36,0,0,0,0,0,0],"split_type":[0,0,0,0,0,0,0,0,0,0,0,0,0,0,0,0,0,0,0,0,0],"sum_hessian":[7.87E2,9E0,7.78E2,5E0,4E0,7.69E2,9E0,4E0,1E0,3E0,1E0,7.58E2,1.1E1,3E0,6E0,7.37E2,2.1E1,7E0,4E0,2E0,4E0],"tree_param":{"num_deleted":"0","num_feature":"280","num_nodes":"21","size_leaf_vector":"1"}},{"base_weights":[2.8627679E-5,1.3191419E-2,-1.7924354E-4,-1.1044784E-3,2.0477427E-2,-9.708617E-3,3.8738435E-5,1.7895972E-4,-1.5850975E-4,2.2044743E-4,1.1071538E-3,2.864228E-3,-9.398015E-4,-4.088501E-5,1.9719357E-2,-2.7768142E-4,4.5128335E-4,-4.0116563E-4,7.3043825E-6,2.553479E-4,1.223604E-3],"categories":[],"categories_nodes":[],"categories_segments":[],"categories_sizes":[],"default_left":[0,0,0,0,0,0,0,0,0,0,0,0,0,0,0,0,0,0,0,0,0],"id":9,"left_children":[1,3,5,7,9,11,13,-1,-1,-1,-1,15,-1,17,19,-1,-1,-1,-1,-1,-1],"loss_changes":[2.1119479E-3,1.2725375E-3,1.5790722E-3,5.9722443E-5,1.164875E-4,1.9961651E-3,1.1666829E-3,0E0,0E0,0E0,0E0,4.6505406E-4,0E0,1.1086038E-3,8.336804E-5,0E0,0E0,0E0,0E0,0E0,0E0],"parents":[2147483647,0,0,1,1,2,2,3,3,4,4,5,5,6,6,11,11,13,13,14,14],"right_children":[2,4,6,8,10,12,14,-1,-1,-1,-1,16,-1,18,20,-1,-1,-1,-1,-1,-1],"split_conditions":[-2.8257263E0,-1.0775079E-1,-2.4520595E0,-4.069805E-1,-1.0979726E0,-1.252797E-2,4.274659E0,1.7895972E-4,-1.5850975E-4,2.2044743E-4,1.1071538E-3,-1.867736E-1,-9.398015E-4,3.530353E-2,-9.94199E-1,-2.7768142E-4,4.5128335E-4,-4.0116563E-4,7.3043825E-6,2.553479E-4,1.223604E-3],"split_indices":[198,16,2,4,0,156,100,0,0,0,0,131,0,246,0,0,0,0,0,0,0],"split_type":[0,0,0,0,0,0,0,0,0,0,0,0,0,0,0,0,0,0,0,0,0],"sum_hessian":[7.7E2,1.1E1,7.59E2,4E0,7E0,1.6E1,7.43E2,1E0,3E0,1E0,6E0,7E0,9E0,7.41E2,2E0,3E0,4E0,1.6E1,7.25E2,1E0,1E0],"tree_param":{"num_deleted":"0","num_feature":"280","num_nodes":"21","size_leaf_vector":"1"}},{"base_weights":[-5.754995E-5,1.007941E-4,-1.7716002E-2,-7.1724215E-5,1.49070015E-2,1.056412E-3,-1.6029706E-3,-8.337587E-3,1.4762457E-4,3.204985E-4,1.6530004E-3,-9.354302E-5,1.3278949E-4,2.5151498E-4,-8.834352E-4,-1.09724015E-5,3.2682295E-4,5.817491E-4,-4.1227444E-4],"categories":[],"categories_nodes":[],"categories_segments":[],"categories_sizes":[],"default_left":[0,0,0,0,0,0,0,0,0,0,0,0,0,0,0,0,0,0,0],"id":10,"left_children":[1,3,5,7,9,11,-1,13,15,17,-1,-1,-1,-1,-1,-1,-1,-1,-1],"loss_changes":[2.2023248E-3,1.99601E-3,1.918691E-3,1.4027625E-3,2.3725042E-3,2.369587E-5,0E0,2.5836248E-3,1.7696896E-3,6.774544E-4,0E0,0E0,0E0,0E0,0E0,0E0,0E0,0E0,0E0],"parents":[2147483647,0,0,1,1,2,2,3,3,4,4,5,5,7,7,8,8,9,9],"right_children":[2,4,6,8,10,12,-1,14,16,18,-1,-1,-1,-1,-1,-1,-1,-1,-1],"split_conditions":[3.809313E0,2.645389E0,3.203998E-2,-2.4520595E0,-8.8513E-3,-1.0393722E0,-1.6029706E-3,-1.3407372E-1,1.1105802E0,2.9144778E0,1.6530004E-3,-9.354302E-5,1.3278949E-4,2.5151498E-4,-8.834352E-4,-1.09724015E-5,3.2682295E-4,5.817491E-4,-4.1227444E-4],"split_indices":[2,2,19,2,218,0,0,156,197,2,0,0,0,0,0,0,0,0,0],"split_type":[0,0,0,0,0,0,0,0,0,0,0,0,0,0,0,0,0,0,0],"sum_hessian":[7.86E2,7.8E2,6E0,7.72E2,8E0,3E0,3E0,1.9E1,7.53E2,5E0,3E0,1E0,2E0,8E0,1.1E1,7.13E2,4E1,2E0,3E0],"tree_param":{"num_deleted":"0","num_feature":"280","num_nodes":"19","size_leaf_vector":"1"}},{"base_weights":[7.659938E-5,9.607625E-3,-9.4568524E-5,-1.8919416E-3,1.620649E-2,7.842765E-5,-8.922602E-3,-1.3866932E-4,6.288208E-5,2.3283763E-4,1.8841164E-2,-2.3576259E-4,5.366691E-3,-1.6350472E-2,9.203232E-3,1.0065892E-3,2.7743622E-4,-1.5298454E-5,1.263088E-3,9.454447E-5,7.094135E-4,9.729758E-6,-9.012219E-4,5.5712735E-5,7.112233E-4],"categories":[],"categories_nodes":[],"categories_segments":[],"categories_sizes":[],"default_left":[0,0,0,0,0,0,0,0,0,0,0,0,0,0,0,0,0,0,0,0,0,0,0,0,0],"id":11,"left_children":[1,3,5,7,9,11,13,-1,-1,-1,15,17,19,21,23,-1,-1,-1,-1,-1,-1,-1,-1,-1,-1],"loss_changes":[1.2946134E-3,1.0930389E-3,1.1919282E-3,2.014503E-5,1.861297E-4,1.2739901E-3,2.170022E-3,0E0,0E0,0E0,8.382602E-6,1.3037553E-3,1.29164E-3,3.081623E-4,1.8723353E-4,0E0,0E0,0E0,0E0,0E0,0E0,0E0,0E0,0E0,0E0],"parents":[2147483647,0,0,1,1,2,2,3,3,4,4,5,5,6,6,10,10,11,11,12,12,13,13,14,14],"right_children":[2,4,6,8,10,12,14,-1,-1,-1,16,18,20,22,24,-1,-1,-1,-1,-1,-1,-1,-1,-1,-1],"split_conditions":[-2.8257263E0,-8.74387E-2,2.9097323E0,1.2476175E0,-1.0979726E0,1.1025072E0,6.362158E-2,-1.3866932E-4,6.288208E-5,2.3283763E-4,1.0349377E0,2.6408088E0,-3.3406322E-3,-6.296177E-1,3.8770857E-1,1.0065892E-3,2.7743622E-4,-1.5298454E-5,1.263088E-3,9.454447E-5,7.094135E-4,9.729758E-6,-9.012219E-4,5.5712735E-5,7.112233E-4],"split_indices":[198,16,198,0,0,197,75,0,0,0,5,198,8,71,1,0,0,0,0,0,0,0,0,0,0],"split_type":[0,0,0,0,0,0,0,0,0,0,0,0,0,0,0,0,0,0,0,0,0,0,0,0,0],"sum_hessian":[7.92E2,1.3E1,7.79E2,5E0,8E0,7.65E2,1.4E1,4E0,1E0,2E0,6E0,7.23E2,4.2E1,1E1,4E0,5E0,1E0,7.22E2,1E0,3.1E1,1.1E1,1E0,9E0,2E0,2E0],"tree_param":{"num_deleted":"0","num_feature":"280","num_nodes":"25","size_leaf_vector":"1"}},{"base_weights":[-4.7965525E-5,-4.669788E-3,1.9631565E-4,-1.9733245E-3,-1.0797092E-2,-1.4765514E-5,7.5949114E-3,-3.147423E-3,9.854968E-4,9.57821E-4,-1.482182E-2,1.13274305E-4,-9.3345875E-3,2.0085143E-2,1.2598092E-3,1.3033238E-5,-2.264018E-4,1.4194276E-4,-2.0716243E-5,-5.6129833E-5,1.0127463E-4,-3.4050736E-5,-8.2521467E-4,4.723166E-4,-8.344662E-7,-9.4006036E-4,1.946136E-4,1.3121566E-3,1.5633913E-4,-3.0262748E-4,3.4036103E-4],"categories":[],"categories_nodes":[],"categories_segments":[],"categories_sizes":[],"default_left":[0,0,0,0,0,0,0,0,0,0,0,0,0,0,0,0,0,0,0,0,0,0,0,0,0,0,0,0,0,0,0],"id":12,"left_children":[1,3,5,7,9,11,13,15,17,19,21,23,25,27,29,-1,-1,-1,-1,-1,-1,-1,-1,-1,-1,-1,-1,-1,-1,-1,-1],"loss_changes":[8.9962006E-4,6.3957577E-4,1.1823223E-3,1.0384625E-4,5.819205E-4,8.805256E-4,1.6363611E-3,9.999053E-5,2.452555E-5,1.11586205E-5,2.028842E-4,8.831911E-4,1.3253159E-3,6.4894906E-4,6.4967095E-4,0E0,0E0,0E0,0E0,0E0,0E0,0E0,0E0,0E0,0E0,0E0,0E0,0E0,0E0,0E0,0E0],"parents":[2147483647,0,0,1,1,2,2,3,3,4,4,5,5,6,6,7,7,8,8,9,9,10,10,11,11,12,12,13,13,14,14],"right_children":[2,4,6,8,10,12,14,16,18,20,22,24,26,28,30,-1,-1,-1,-1,-1,-1,-1,-1,-1,-1,-1,-1,-1,-1,-1,-1],"split_conditions":[-1.6927347E0,7.956148E-3,2.7500942E0,1.2987188E-1,-6.5042514E-1,2.1158924E0,3.9464113E-1,-5.780749E-1,-7.305589E-1,-1.735568E0,-1.0505279E0,-2.586231E0,4.1970916E-2,-4.297566E-1,5.18244E-2,1.3033238E-5,-2.264018E-4,1.4194276E-4,-2.0716243E-5,-5.6129833E-5,1.0127463E-4,-3.4050736E-5,-8.2521467E-4,4.723166E-4,-8.344662E-7,-9.4006036E-4,1.946136E-4,1.3121566E-3,1.5633913E-4,-3.0262748E-4,3.4036103E-4],"split_indices":[103,106,197,130,60,197,169,186,16,5,14,100,134,4,192,0,0,0,0,0,0,0,0,0,0,0,0,0,0,0,0],"split_type":[0,0,0,0,0,0,0,0,0,0,0,0,0,0,0,0,0,0,0,0,0,0,0,0,0,0,0,0,0,0,0],"sum_hessian":[7.95E2,3.9E1,7.56E2,2.8E1,1.1E1,7.36E2,2E1,2E1,8E0,3E0,8E0,7.27E2,9E0,6E0,1.4E1,6E0,1.4E1,3E0,5E0,1E0,2E0,1E0,7E0,9E0,7.18E2,5E0,4E0,4E0,2E0,6E0,8E0],"tree_param":{"num_deleted":"0","num_feature":"280","num_nodes":"31","size_leaf_vector":"1"}},{"base_weights":[-7.6939825E-5,4.0126182E-5,-1.5204653E-2,8.742924E-3,-1.5459445E-4,-2.2690794E-4,-8.2151603E-4,1.3333917E-2,-4.9422435E-3,-3.1411015E-5,-1.3401126E-2,9.83462E-4,2.5468747E-4,-3.3955564E-4,6.133089E-5,-7.2903676E-6,8.567161E-4,-1.9305944E-4,-1.2416989E-3],"categories":[],"categories_nodes":[],"categories_segments":[],"categories_sizes":[],"default_left":[0,0,0,0,0,0,0,0,0,0,0,0,0,0,0,0,0,0,0],"id":13,"left_children":[1,3,5,7,9,-1,-1,11,13,15,17,-1,-1,-1,-1,-1,-1,-1,-1],"loss_changes":[1.3837152E-3,1.3163722E-3,3.877911E-6,1.133984E-3,1.2397114E-3,0E0,0E0,5.784633E-4,6.5357206E-5,1.4831258E-3,6.6759216E-4,0E0,0E0,0E0,0E0,0E0,0E0,0E0,0E0],"parents":[2147483647,0,0,1,1,2,2,3,3,4,4,7,7,8,8,9,9,10,10],"right_children":[2,4,6,8,10,-1,-1,12,14,16,18,-1,-1,-1,-1,-1,-1,-1,-1],"split_conditions":[4.2737184E0,-2.5888033E0,-2.9968636E0,4.297124E-2,4.00176E0,-2.2690794E-4,-8.2151603E-4,5.0452435E-1,1.3303964E0,3.4978416E0,-1.0002435E0,9.83462E-4,2.5468747E-4,-3.3955564E-4,6.133089E-5,-7.2903676E-6,8.567161E-4,-1.9305944E-4,-1.2416989E-3],"split_indices":[198,198,2,232,99,0,0,183,0,99,0,0,0,0,0,0,0,0,0],"split_type":[0,0,0,0,0,0,0,0,0,0,0,0,0,0,0,0,0,0,0],"sum_hessian":[7.8E2,7.75E2,5E0,1.6E1,7.59E2,1E0,4E0,1.2E1,4E0,7.53E2,6E0,6E0,6E0,3E0,1E0,7.49E2,4E0,4E0,2E0],"tree_param":{"num_deleted":"0","num_feature":"280","num_nodes":"19","size_leaf_vector":"1"}},{"base_weights":[-9.486398E-6,-2.4719126E-4,6.805071E-3,8.74613E-3,-4.123152E-4,2.2102646E-3,1.4395216E-2,-2.6108574E-3,1.5345664E-2,-2.76952E-3,2.0992011E-4,4.9207197E-3,-1.7928943E-3,1.6945632E-2,1.3978506E-4,-4.6159877E-4,2.7988066E-5,8.851331E-4,-8.775785E-5,-1.04830775E-4,-1.1537828E-3,5.5253226E-4,-6.171484E-6,2.946026E-4,1.832416E-5,-1.9651924E-4,6.635964E-5,2.17423E-4,9.06201E-4],"categories":[],"categories_nodes":[],"categories_segments":[],"categories_sizes":[],"default_left":[0,0,0,0,0,0,0,0,0,0,0,0,0,0,0,0,0,0,0,0,0,0,0,0,0,0,0,0,0],"id":14,"left_children":[1,3,5,7,9,11,13,15,17,19,21,23,25,27,-1,-1,-1,-1,-1,-1,-1,-1,-1,-1,-1,-1,-1,-1,-1],"loss_changes":[1.297565E-3,1.153006E-3,9.0981426E-4,1.0893766E-3,1.1167675E-3,2.041292E-4,2.4846103E-4,1.3112594E-4,3.9383047E-4,2.1242094E-3,2.1804573E-3,4.650114E-5,5.8569633E-5,3.994326E-5,0E0,0E0,0E0,0E0,0E0,0E0,0E0,0E0,0E0,0E0,0E0,0E0,0E0,0E0,0E0],"parents":[2147483647,0,0,1,1,2,2,3,3,4,4,5,5,6,6,7,7,8,8,9,9,10,10,11,11,12,12,13,13],"right_children":[2,4,6,8,10,12,14,16,18,20,22,24,26,28,-1,-1,-1,-1,-1,-1,-1,-1,-1,-1,-1,-1,-1,-1,-1],"split_conditions":[1.9666522E0,-2.8257263E0,7.805469E-1,-6.3666695E-1,3.5306178E-2,1.3422458E-1,1.297741E-1,6.1857134E-1,2.9144778E0,3.0916104E0,-1.9070373E0,1.4815667E0,1.5378997E-1,-2.4520595E0,1.3978506E-4,-4.6159877E-4,2.7988066E-5,8.851331E-4,-8.775785E-5,-1.04830775E-4,-1.1537828E-3,5.5253226E-4,-6.171484E-6,2.946026E-4,1.832416E-5,-1.9651924E-4,6.635964E-5,2.17423E-4,9.06201E-4],"split_indices":[142,198,114,2,246,243,6,1,2,2,100,141,15,2,0,0,0,0,0,0,0,0,0,0,0,0,0,0,0],"split_type":[0,0,0,0,0,0,0,0,0,0,0,0,0,0,0,0,0,0,0,0,0,0,0,0,0,0,0,0,0],"sum_hessian":[7.99E2,7.73E2,2.6E1,1.3E1,7.6E2,1.7E1,9E0,5E0,8E0,1.58E2,6.02E2,1E1,7E0,7E0,2E0,1E0,4E0,7E0,1E0,1.54E2,4E0,1.7E1,5.85E2,8E0,2E0,4E0,3E0,1E0,6E0],"tree_param":{"num_deleted":"0","num_feature":"280","num_nodes":"29","size_leaf_vector":"1"}},{"base_weights":[-1.08206834E-4,2.6072219E-5,-1.3153319E-2,9.877589E-3,-8.910924E-5,-2.6272736E-2,6.534283E-3,-5.31076E-3,1.154521E-3,5.8819278E-5,-1.0301524E-2,-1.4966078E-3,-2.9087655E-4,-8.556391E-5,4.9266143E-4,5.2095827E-5,-4.946592E-4,4.4086488E-4,-3.4858415E-6,-7.243156E-4,2.84334E-4],"categories":[],"categories_nodes":[],"categories_segments":[],"categories_sizes":[],"default_left":[0,0,0,0,0,0,0,0,0,0,0,0,0,0,0,0,0,0,0,0,0],"id":15,"left_children":[1,3,5,7,9,11,13,15,-1,17,19,-1,-1,-1,-1,-1,-1,-1,-1,-1,-1],"loss_changes":[1.375416E-3,8.836862E-4,2.2379924E-3,1.9287574E-3,1.1638507E-3,2.0013982E-4,1.2632793E-4,1.5586114E-4,0E0,8.56208E-4,8.183586E-4,0E0,0E0,0E0,0E0,0E0,0E0,0E0,0E0,0E0,0E0],"parents":[2147483647,0,0,1,1,2,2,3,3,4,4,5,5,6,6,7,7,9,9,10,10],"right_children":[2,4,6,8,10,12,14,16,-1,18,20,-1,-1,-1,-1,-1,-1,-1,-1,-1,-1],"split_conditions":[3.809313E0,-2.9953115E0,-2.0604974E-1,9.531382E-1,2.9097323E0,4.279301E0,-1.0393722E0,5.45552E-1,1.154521E-3,-2.5888033E0,2.1588732E-1,-1.4966078E-3,-2.9087655E-4,-8.556391E-5,4.9266143E-4,5.2095827E-5,-4.946592E-4,4.4086488E-4,-3.4858415E-6,-7.243156E-4,2.84334E-4],"split_indices":[2,100,72,0,198,2,0,1,0,198,43,0,0,0,0,0,0,0,0,0,0],"split_type":[0,0,0,0,0,0,0,0,0,0,0,0,0,0,0,0,0,0,0,0,0],"sum_hessian":[7.84E2,7.77E2,7E0,8E0,7.69E2,4E0,3E0,4E0,4E0,7.59E2,1E1,3E0,1E0,1E0,2E0,2E0,2E0,1E1,7.49E2,8E0,2E0],"tree_param":{"num_deleted":"0","num_feature":"280","num_nodes":"21","size_leaf_vector":"1"}},{"base_weights":[-3.984463E-5,1.1523545E-2,-2.0286698E-4,1.6837636E-2,1.7791096E-3,-9.658783E-5,-1.389678E-2,9.156017E-4,1.9978122E-4,-7.064603E-5,1.4651737E-4,8.133273E-3,-3.0302213E-4,-2.0297305E-4,-7.526176E-4,3.9787017E-5,9.061456E-4,-8.676697E-6,-8.2408526E-4],"categories":[],"categories_nodes":[],"categories_segments":[],"categories_sizes":[],"default_left":[0,0,0,0,0,0,0,0,0,0,0,0,0,0,0,0,0,0,0],"id":16,"left_children":[1,3,5,7,9,11,13,-1,-1,-1,-1,15,17,-1,-1,-1,-1,-1,-1],"loss_changes":[1.4915597E-3,5.396551E-4,1.1338522E-3,5.937158E-5,2.2514274E-5,1.3191318E-3,7.1019167E-6,0E0,0E0,0E0,0E0,1.3782653E-3,1.5830157E-3,0E0,0E0,0E0,0E0,0E0,0E0],"parents":[2147483647,0,0,1,1,2,2,3,3,4,4,5,5,6,6,11,11,12,12],"right_children":[2,4,6,8,10,12,14,-1,-1,-1,-1,16,18,-1,-1,-1,-1,-1,-1],"split_conditions":[-2.5888033E0,2.2550473E-1,4.2737184E0,4.1699246E-1,-3.367024E0,-1.3917716E0,-2.9968636E0,9.156017E-4,1.9978122E-4,-7.064603E-5,1.4651737E-4,-2.0119473E-1,3.809313E0,-2.0297305E-4,-7.526176E-4,3.9787017E-5,9.061456E-4,-8.676697E-6,-8.2408526E-4],"split_indices":[198,128,198,30,2,205,2,0,0,0,0,102,2,0,0,0,0,0,0],"split_type":[0,0,0,0,0,0,0,0,0,0,0,0,0,0,0,0,0,0,0],"sum_hessian":[7.89E2,1E1,7.79E2,6E0,4E0,7.74E2,5E0,5E0,1E0,1E0,3E0,1.8E1,7.56E2,1E0,4E0,1.1E1,7E0,7.51E2,5E0],"tree_param":{"num_deleted":"0","num_feature":"280","num_nodes":"19","size_leaf_vector":"1"}},{"base_weights":[1.0480219E-5,1.2300623E-4,-8.8801235E-3,2.1020249E-5,1.6130602E-2,-2.5467705E-3,-1.1404512E-3,1.5733457E-4,-8.784364E-3,-1.407363E-4,1.0785308E-3,-2.9502407E-4,2.2820604E-3,3.089662E-5,-9.2407245E-5,-7.902848E-4,4.3562442E-5,-2.4426117E-5,1.6842145E-4],"categories":[],"categories_nodes":[],"categories_segments":[],"categories_sizes":[],"default_left":[0,0,0,0,0,0,0,0,0,0,0,0,0,0,0,0,0,0,0],"id":17,"left_children":[1,3,5,7,9,11,-1,13,15,-1,-1,-1,17,-1,-1,-1,-1,-1,-1],"loss_changes":[8.0043124E-4,1.2893757E-3,8.240769E-4,9.448178E-4,5.7602965E-4,1.4302129E-4,0E0,7.170245E-4,8.273137E-4,0E0,0E0,0E0,1.3685047E-5,0E0,0E0,0E0,0E0,0E0,0E0],"parents":[2147483647,0,0,1,1,2,2,3,3,4,4,5,5,7,7,8,8,12,12],"right_children":[2,4,6,8,10,12,-1,14,16,-1,-1,-1,18,-1,-1,-1,-1,-1,-1],"split_conditions":[4.00176E0,3.4978416E0,-9.94199E-1,2.9097323E0,-1.1536201E0,2.6824908E0,-1.1404512E-3,1.3391311E0,1.3874146E-1,-1.407363E-4,1.0785308E-3,-2.9502407E-4,-1.1195977E0,3.089662E-5,-9.2407245E-5,-7.902848E-4,4.3562442E-5,-2.4426117E-5,1.6842145E-4],"split_indices":[99,99,0,198,0,113,0,266,86,0,0,0,0,0,0,0,0,0,0],"split_type":[0,0,0,0,0,0,0,0,0,0,0,0,0,0,0,0,0,0,0],"sum_hessian":[7.98E2,7.89E2,9E0,7.85E2,4E0,7E0,2E0,7.74E2,1.1E1,1E0,3E0,4E0,3E0,6.3E2,1.44E2,6E0,5E0,1E0,2E0],"tree_param":{"num_deleted":"0","num_feature":"280","num_nodes":"19","size_leaf_vector":"1"}},{"base_weights":[1.7645607E-4,3.411013E-4,-1.7818602E-2,2.1212098E-4,1.4259097E-2,-1.4161852E-3,-2.8588513E-3,4.713172E-3,1.3708656E-5,1.5405493E-3,-5.8575664E-3,5.808617E-5,-2.293142E-4,5.100666E-4,-2.0463504E-4,7.846413E-6,-4.6614255E-4,1.5412997E-4,-4.932577E-4],"categories":[],"categories_nodes":[],"categories_segments":[],"categories_sizes":[],"default_left":[0,0,0,0,0,0,0,0,0,0,0,0,0,0,0,0,0,0,0],"id":18,"left_children":[1,3,5,7,9,-1,11,13,15,-1,17,-1,-1,-1,-1,-1,-1,-1,-1],"loss_changes":[2.2874342E-3,1.3684679E-3,1.0191028E-3,6.76878E-4,2.511259E-3,0E0,3.310908E-5,1.588248E-3,9.735917E-4,0E0,1.7372433E-4,0E0,0E0,0E0,0E0,0E0,0E0,0E0,0E0],"parents":[2147483647,0,0,1,1,2,2,3,3,4,4,6,6,7,7,8,8,10,10],"right_children":[2,4,6,8,10,-1,12,14,16,-1,18,-1,-1,-1,-1,-1,-1,-1,-1],"split_conditions":[3.809313E0,2.645389E0,4.4430858E-1,-1.5513414E0,-2.911722E-1,-1.4161852E-3,-8.02731E-1,-5.1537734E-2,2.9097323E0,1.5405493E-3,-9.284464E-1,5.808617E-5,-2.293142E-4,5.100666E-4,-2.0463504E-4,7.846413E-6,-4.6614255E-4,1.5412997E-4,-4.932577E-4],"split_indices":[2,2,158,100,44,0,6,170,198,0,0,0,0,0,0,0,0,0,0],"split_type":[0,0,0,0,0,0,0,0,0,0,0,0,0,0,0,0,0,0,0],"sum_hessian":[7.69E2,7.63E2,6E0,7.57E2,6E0,3E0,3E0,3.1E1,7.26E2,3E0,3E0,1E0,2E0,1.9E1,1.2E1,7.16E2,1E1,1E0,2E0],"tree_param":{"num_deleted":"0","num_feature":"280","num_nodes":"19","size_leaf_vector":"1"}},{"base_weights":[-5.763803E-5,6.538057E-5,-1.1860219E-2,-6.318648E-3,2.6211955E-4,8.013492E-3,-1.2693572E-3,3.1874944E-3,-1.5298236E-2,1.0115795E-2,8.724228E-5,4.9647683E-4,5.6634017E-5,-2.8793977E-4,4.1902444E-4,-1.5755765E-4,-8.706269E-4,6.243804E-4,-4.586489E-4,8.414612E-6,-7.3732244E-4],"categories":[],"categories_nodes":[],"categories_segments":[],"categories_sizes":[],"default_left":[0,0,0,0,0,0,0,0,0,0,0,0,0,0,0,0,0,0,0,0,0],"id":19,"left_children":[1,3,5,7,9,11,-1,13,15,17,19,-1,-1,-1,-1,-1,-1,-1,-1,-1,-1],"loss_changes":[1.1260266E-3,9.662544E-4,2.3540817E-3,2.0120714E-3,1.2846125E-3,4.148876E-5,0E0,6.057579E-4,2.533216E-4,7.0929015E-4,8.849479E-4,0E0,0E0,0E0,0E0,0E0,0E0,0E0,0E0,0E0,0E0],"parents":[2147483647,0,0,1,1,2,2,3,3,4,4,5,5,7,7,8,8,9,9,10,10],"right_children":[2,4,6,8,10,12,-1,14,16,18,20,-1,-1,-1,-1,-1,-1,-1,-1,-1,-1],"split_conditions":[3.809313E0,-2.4520595E0,-5.172971E-1,-1.252797E-2,-2.5888033E0,2.3697407E0,-1.2693572E-3,-1.3238032E-2,2.23782E-2,-3.3400177E-3,4.2737184E0,4.9647683E-4,5.6634017E-5,-2.8793977E-4,4.1902444E-4,-1.5755765E-4,-8.706269E-4,6.243804E-4,-4.586489E-4,8.414612E-6,-7.3732244E-4],"split_indices":[2,2,74,156,198,4,0,190,162,8,198,0,0,0,0,0,0,0,0,0,0],"split_type":[0,0,0,0,0,0,0,0,0,0,0,0,0,0,0,0,0,0,0,0,0],"sum_hessian":[7.74E2,7.67E2,7E0,2.2E1,7.45E2,3E0,4E0,1.1E1,1.1E1,1.2E1,7.33E2,2E0,1E0,4E0,7E0,2E0,9E0,1.1E1,1E0,7.3E2,3E0],"tree_param":{"num_deleted":"0","num_feature":"280","num_nodes":"21","size_leaf_vector":"1"}},{"base_weights":[-2.0316923E-4,-1.3129946E-4,-1.872576E-2,9.548384E-3,-3.0873623E-4,-2.765923E-4,-1.1278398E-3,1.8003935E-2,-4.726341E-3,-1.9008806E-4,-1.5246499E-2,1.1358734E-4,1.1087157E-3,2.7641294E-5,-5.0948915E-4,1.6838925E-4,-2.4484718E-5,-1.0277977E-3,-1.5425311E-4],"categories":[],"categories_nodes":[],"categories_segments":[],"categories_sizes":[],"default_left":[0,0,0,0,0,0,0,0,0,0,0,0,0,0,0,0,0,0,0],"id":20,"left_children":[1,3,5,7,9,-1,-1,11,13,15,17,-1,-1,-1,-1,-1,-1,-1,-1],"loss_changes":[1.033226E-3,1.3357527E-3,2.6858412E-5,1.7749023E-3,1.3493958E-3,0E0,0E0,5.401077E-4,1.786877E-4,8.0964784E-4,3.2400712E-4,0E0,0E0,0E0,0E0,0E0,0E0,0E0,0E0],"parents":[2147483647,0,0,1,1,2,2,3,3,4,4,7,7,8,8,9,9,10,10],"right_children":[2,4,6,8,10,-1,-1,12,14,16,18,-1,-1,-1,-1,-1,-1,-1,-1],"split_conditions":[5.0790877E0,-2.586231E0,-1.1251956E0,-3.156814E-1,3.0916104E0,-2.765923E-4,-1.1278398E-3,-5.99374E-1,5.45552E-1,-1.0668417E0,1.3722936E0,1.1358734E-4,1.1087157E-3,2.7641294E-5,-5.0948915E-4,1.6838925E-4,-2.4484718E-5,-1.0277977E-3,-1.5425311E-4],"split_indices":[99,100,0,229,2,0,0,43,1,28,0,0,0,0,0,0,0,0,0],"split_type":[0,0,0,0,0,0,0,0,0,0,0,0,0,0,0,0,0,0,0],"sum_hessian":[7.77E2,7.75E2,2E0,1.3E1,7.62E2,1E0,1E0,8E0,5E0,7.57E2,5E0,2E0,6E0,3E0,2E0,5.8E1,6.99E2,3E0,2E0],"tree_param":{"num_deleted":"0","num_feature":"280","num_nodes":"19","size_leaf_vector":"1"}},{"base_weights":[-5.9901857E-5,9.752199E-5,-1.7255522E-2,-7.5484943E-3,3.023783E-4,-1.1978358E-3,-3.350276E-4,1.6969411E-3,-1.38535295E-2,1.4363589E-4,8.592078E-3,-1.8187035E-4,1.5674328E-4,-3.759599E-4,3.7791053E-4,-2.4860067E-4,-8.836393E-4,2.3655035E-5,-2.788085E-4,1.3728075E-4,9.283296E-4],"categories":[],"categories_nodes":[],"categories_segments":[],"categories_sizes":[],"default_left":[0,0,0,0,0,0,0,0,0,0,0,0,0,0,0,0,0,0,0,0,0],"id":21,"left_children":[1,3,5,7,9,-1,11,13,15,17,19,-1,-1,-1,-1,-1,-1,-1,-1,-1,-1],"loss_changes":[2.0887803E-3,1.2005286E-3,7.856863E-4,1.1893644E-3,9.804474E-4,0E0,4.5779492E-5,5.429961E-4,3.191803E-4,1.3839579E-3,7.6544203E-4,0E0,0E0,0E0,0E0,0E0,0E0,0E0,0E0,0E0,0E0],"parents":[2147483647,0,0,1,1,2,2,3,3,4,4,6,6,7,7,8,8,9,9,10,10],"right_children":[2,4,6,8,10,-1,12,14,16,18,20,-1,-1,-1,-1,-1,-1,-1,-1,-1,-1],"split_conditions":[3.809313E0,-2.4520595E0,2.1784906E0,3.5306E-2,2.083202E0,-1.1978358E-3,1.1760972E0,-5.044487E-1,6.319778E-3,7.957253E-3,4.297026E-2,-1.8187035E-4,1.5674328E-4,-3.759599E-4,3.7791053E-4,-2.4860067E-4,-8.836393E-4,2.3655035E-5,-2.788085E-4,1.3728075E-4,9.283296E-4],"split_indices":[2,2,4,246,100,0,0,33,176,106,232,0,0,0,0,0,0,0,0,0,0],"split_type":[0,0,0,0,0,0,0,0,0,0,0,0,0,0,0,0,0,0,0,0,0],"sum_hessian":[7.7E2,7.64E2,6E0,1.9E1,7.45E2,4E0,2E0,8E0,1.1E1,7.32E2,1.3E1,1E0,1E0,3E0,5E0,4E0,7E0,6.93E2,3.9E1,9E0,4E0],"tree_param":{"num_deleted":"0","num_feature":"280","num_nodes":"21","size_leaf_vector":"1"}},{"base_weights":[-9.867929E-5,2.700711E-3,-6.1660894E-4,1.1332691E-2,5.145835E-4,-4.21599E-4,-1.29185775E-2,4.3510455E-3,2.0671891E-2,6.964027E-4,8.101971E-5,8.708137E-5,-2.9562246E-3,-9.429695E-4,-3.2058854E-3,6.1226607E-4,1.8359451E-5,1.3004157E-3,-2.2460097E-5,2.8463915E-5,-3.5874936E-4,1.177329E-5,-5.5058976E-4,-2.2550004E-4,9.514227E-6,8.545987E-5,-2.4309778E-4],"categories":[],"categories_nodes":[],"categories_segments":[],"categories_sizes":[],"default_left":[0,0,0,0,0,0,0,0,0,0,0,0,0,0,0,0,0,0,0,0,0,0,0,0,0,0,0],"id":22,"left_children":[1,3,5,7,9,11,13,15,17,-1,19,21,23,-1,25,-1,-1,-1,-1,-1,-1,-1,-1,-1,-1,-1,-1],"loss_changes":[1.1050294E-3,2.2397707E-3,1.5371141E-3,1.4749267E-3,5.571686E-4,8.1768265E-4,5.16552E-4,4.6724864E-4,1.1387942E-3,0E0,3.3710847E-4,8.738033E-4,5.190891E-4,0E0,4.900865E-5,0E0,0E0,0E0,0E0,0E0,0E0,0E0,0E0,0E0,0E0,0E0,0E0],"parents":[2147483647,0,0,1,1,2,2,3,3,4,4,5,5,6,6,7,7,8,8,10,10,11,11,12,12,14,14],"right_children":[2,4,6,8,10,12,14,16,18,-1,20,22,24,-1,26,-1,-1,-1,-1,-1,-1,-1,-1,-1,-1,-1,-1],"split_conditions":[-5.700847E-1,-4.0682554E-1,2.9144778E0,-4.9820826E-3,-3.366796E0,1.366352E0,4.1971117E-2,-1.2562855E0,2.124124E0,6.964027E-4,1.2279623E0,3.8008094E0,2.2726424E-2,-9.429695E-4,-8.02731E-1,6.1226607E-4,1.8359451E-5,1.3004157E-3,-2.2460097E-5,2.8463915E-5,-3.5874936E-4,1.177329E-5,-5.5058976E-4,-2.2550004E-4,9.514227E-6,8.545987E-5,-2.4309778E-4],"split_indices":[240,205,2,270,170,266,134,100,200,0,267,268,78,0,6,0,0,0,0,0,0,0,0,0,0,0,0],"split_type":[0,0,0,0,0,0,0,0,0,0,0,0,0,0,0,0,0,0,0,0,0,0,0,0,0,0,0],"sum_hessian":[7.6E2,1.18E2,6.42E2,2.3E1,9.5E1,6.33E2,9E0,1.4E1,9E0,2E0,9.3E1,5.28E2,1.05E2,5E0,4E0,4E0,1E1,7E0,2E0,8.8E1,5E0,5.22E2,6E0,7E1,3.5E1,1E0,3E0],"tree_param":{"num_deleted":"0","num_feature":"280","num_nodes":"27","size_leaf_vector":"1"}},{"base_weights":[-3.5324692E-6,-3.980522E-4,2.928409E-3,-2.75371E-4,-1.2609303E-2,1.45256305E-2,7.446223E-4,-7.935508E-3,-1.6411667E-4,-1.1618185E-3,4.6527872E-4,-8.4932416E-4,2.229804E-2,-5.055317E-5,1.0718018E-3,9.645888E-6,-8.05126E-4,4.3236493E-4,-1.20472605E-5,-5.132455E-4,1.5433876E-4,1.2639003E-3,-1.13041155E-4,-6.974353E-4,4.383322E-5],"categories":[],"categories_nodes":[],"categories_segments":[],"categories_sizes":[],"default_left":[0,0,0,0,0,0,0,0,0,0,0,0,0,0,0,0,0,0,0,0,0,0,0,0,0],"id":23,"left_children":[1,3,5,7,9,11,13,15,17,-1,-1,19,21,23,-1,-1,-1,-1,-1,-1,-1,-1,-1,-1,-1],"loss_changes":[9.265326E-4,1.0541796E-3,2.3951405E-3,5.952541E-4,1.8464635E-3,1.811445E-3,1.3338014E-3,6.6695584E-4,4.6986845E-4,0E0,0E0,2.5404958E-4,7.889946E-4,1.0302707E-3,0E0,0E0,0E0,0E0,0E0,0E0,0E0,0E0,0E0,0E0,0E0],"parents":[2147483647,0,0,1,1,2,2,3,3,4,4,5,5,6,6,7,7,8,8,11,11,12,12,13,13],"right_children":[2,4,6,8,10,12,14,16,18,-1,-1,20,22,24,-1,-1,-1,-1,-1,-1,-1,-1,-1,-1,-1],"split_conditions":[-3.8137075E-2,3.0916104E0,-1.1367699E0,-2.5871794E0,4.279301E0,5.18244E-2,3.4978416E0,7.384315E-1,-2.5888033E0,-1.1618185E-3,4.6527872E-4,-3.697738E0,3.6821795E-1,-1.0678802E0,1.0718018E-3,9.645888E-6,-8.05126E-4,4.3236493E-4,-1.20472605E-5,-5.132455E-4,1.5433876E-4,1.2639003E-3,-1.13041155E-4,-6.974353E-4,4.383322E-5],"split_indices":[204,2,272,7,2,220,99,18,198,0,0,2,89,202,0,0,0,0,0,0,0,0,0,0,0],"split_type":[0,0,0,0,0,0,0,0,0,0,0,0,0,0,0,0,0,0,0,0,0,0,0,0,0],"sum_hessian":[7.99E2,7.05E2,9.4E1,6.99E2,6E0,1.4E1,8E1,9E0,6.9E2,4E0,2E0,5E0,9E0,7.8E1,2E0,5E0,4E0,5E0,6.85E2,1E0,4E0,8E0,1E0,4E0,7.4E1],"tree_param":{"num_deleted":"0","num_feature":"280","num_nodes":"25","size_leaf_vector":"1"}},{"base_weights":[1.18289245E-4,-2.02676E-3,6.7723845E-4,-1.3384353E-3,-1.7372023E-2,1.6007576E-2,4.55398E-4,-1.2068304E-2,-6.1418785E-4,1.3905624E-4,-1.0597202E-3,1.0314997E-3,-5.6964054E-6,-7.948101E-3,6.1889406E-4,-8.254046E-4,-2.1634503E-4,2.1186858E-4,-9.311946E-5,-6.3710415E-4,5.340603E-4,5.3821574E-4,2.5896146E-5],"categories":[],"categories_nodes":[],"categories_segments":[],"categories_sizes":[],"default_left":[0,0,0,0,0,0,0,0,0,0,0,0,0,0,0,0,0,0,0,0,0,0,0],"id":24,"left_children":[1,3,5,7,9,11,13,15,17,-1,-1,-1,-1,19,21,-1,-1,-1,-1,-1,-1,-1,-1],"loss_changes":[9.569545E-4,1.7195649E-3,2.145473E-3,1.2281897E-3,5.9817475E-4,6.730333E-4,8.63631E-4,2.722731E-4,9.1625005E-4,0E0,0E0,0E0,0E0,1.2078034E-3,6.234032E-4,0E0,0E0,0E0,0E0,0E0,0E0,0E0,0E0],"parents":[2147483647,0,0,1,1,2,2,3,3,4,4,5,5,6,6,7,7,8,8,13,13,14,14],"right_children":[2,4,6,8,10,12,14,16,18,-1,-1,-1,-1,20,22,-1,-1,-1,-1,-1,-1,-1,-1],"split_conditions":[3.5306178E-2,3.0916104E0,-2.586231E0,-1.7305971E0,5.843659E-1,2.7273414E-1,-2.4520595E0,-1.6376367E0,-3.9470464E-1,1.3905624E-4,-1.0597202E-3,1.0314997E-3,-5.6964054E-6,9.419816E-1,-2.0367205E0,-8.254046E-4,-2.1634503E-4,2.1186858E-4,-9.311946E-5,-6.3710415E-4,5.340603E-4,5.3821574E-4,2.5896146E-5],"split_indices":[246,2,100,7,1,44,2,90,44,0,0,0,0,74,215,0,0,0,0,0,0,0,0],"split_type":[0,0,0,0,0,0,0,0,0,0,0,0,0,0,0,0,0,0,0,0,0,0,0],"sum_hessian":[7.96E2,1.64E2,6.32E2,1.58E2,6E0,8E0,6.24E2,9E0,1.49E2,1E0,5E0,6E0,2E0,1.1E1,6.13E2,5E0,4E0,3E1,1.19E2,9E0,2E0,5E0,6.08E2],"tree_param":{"num_deleted":"0","num_feature":"280","num_nodes":"23","size_leaf_vector":"1"}},{"base_weights":[-2.3529798E-4,-1.478479E-4,-1.36380615E-2,-2.4293149E-4,1.4429512E-2,1.32790565E-5,-1.7180368E-2,-3.8943423E-3,-5.727287E-5,-1.12275826E-4,9.5798244E-4,-2.603724E-4,-9.7177626E-4,-3.5527753E-4,6.445663E-5,3.7917015E-4,-9.244621E-6],"categories":[],"categories_nodes":[],"categories_segments":[],"categories_sizes":[],"default_left":[0,0,0,0,0,0,0,0,0,0,0,0,0,0,0,0,0],"id":25,"left_children":[1,3,5,7,9,-1,11,13,15,-1,-1,-1,-1,-1,-1,-1,-1],"loss_changes":[9.0399594E-4,1.0693916E-3,2.5081768E-4,5.1838264E-4,4.3739914E-4,0E0,6.793649E-6,6.250329E-4,7.122497E-4,0E0,0E0,0E0,0E0,0E0,0E0,0E0,0E0],"parents":[2147483647,0,0,1,1,2,2,3,3,4,4,6,6,7,7,8,8],"right_children":[2,4,6,8,10,-1,12,14,16,-1,-1,-1,-1,-1,-1,-1,-1],"split_conditions":[4.00176E0,3.4978416E0,-3.3423395E-3,-1.6927347E0,-1.1536201E0,1.32790565E-5,-1.1251956E0,3.5310302E-2,-2.586231E0,-1.12275826E-4,9.5798244E-4,-2.603724E-4,-9.7177626E-4,-3.5527753E-4,6.445663E-5,3.7917015E-4,-9.244621E-6],"split_indices":[99,99,8,103,0,0,0,246,100,0,0,0,0,0,0,0,0],"split_type":[0,0,0,0,0,0,0,0,0,0,0,0,0,0,0,0,0],"sum_hessian":[7.72E2,7.68E2,4E0,7.64E2,4E0,1E0,3E0,3.6E1,7.28E2,1E0,3E0,1E0,2E0,2.2E1,1.4E1,1.1E1,7.17E2],"tree_param":{"num_deleted":"0","num_feature":"280","num_nodes":"17","size_leaf_vector":"1"}},{"base_weights":[9.0863556E-5,-1.109035E-4,5.4776813E-3,6.6937525E-3,-2.6878362E-4,1.2890453E-3,1.2888322E-2,-5.811788E-3,9.788639E-3,-1.6422695E-4,-1.1074407E-2,4.1099237E-3,-3.1034031E-3,1.5007064E-2,1.4711168E-4,-1.0553582E-4,-4.2287508E-4,7.075445E-4,1.7024165E-4,-1.2036041E-5,6.8515487E-4,-2.1157828E-4,-9.3938364E-4,-8.762111E-6,2.778892E-4,-2.3874249E-4,6.3697866E-5,8.041314E-4,1.8695292E-4],"categories":[],"categories_nodes":[],"categories_segments":[],"categories_sizes":[],"default_left":[0,0,0,0,0,0,0,0,0,0,0,0,0,0,0,0,0,0,0,0,0,0,0,0,0,0,0,0,0],"id":26,"left_children":[1,3,5,7,9,11,13,15,17,19,21,23,25,27,-1,-1,-1,-1,-1,-1,-1,-1,-1,-1,-1,-1,-1,-1,-1],"loss_changes":[8.429413E-4,8.053905E-4,8.525197E-4,7.148444E-4,8.2519493E-4,2.481755E-4,1.6657764E-4,2.1316504E-5,3.4168724E-4,7.734143E-4,2.8996327E-4,7.542581E-5,6.461514E-5,3.68217E-5,0E0,0E0,0E0,0E0,0E0,0E0,0E0,0E0,0E0,0E0,0E0,0E0,0E0,0E0,0E0],"parents":[2147483647,0,0,1,1,2,2,3,3,4,4,5,5,6,6,7,7,8,8,9,9,10,10,11,11,12,12,13,13],"right_children":[2,4,6,8,10,12,14,16,18,20,22,24,26,28,-1,-1,-1,-1,-1,-1,-1,-1,-1,-1,-1,-1,-1,-1,-1],"split_conditions":[1.9666522E0,-2.5888033E0,7.805469E-1,-1.1138988E0,4.00176E0,4.499203E-1,1.297741E-1,1.3171114E0,5.0452435E-1,3.4978416E0,2.601721E-2,-8.890347E-1,1.942905E-1,1.2542497E0,1.4711168E-4,-1.0553582E-4,-4.2287508E-4,7.075445E-4,1.7024165E-4,-1.2036041E-5,6.8515487E-4,-2.1157828E-4,-9.3938364E-4,-8.762111E-6,2.778892E-4,-2.3874249E-4,6.3697866E-5,8.041314E-4,1.8695292E-4],"split_indices":[142,198,114,159,99,257,6,3,183,99,22,198,1,4,0,0,0,0,0,0,0,0,0,0,0,0,0,0,0],"split_type":[0,0,0,0,0,0,0,0,0,0,0,0,0,0,0,0,0,0,0,0,0,0,0,0,0,0,0,0,0],"sum_hessian":[7.74E2,7.47E2,2.7E1,1.6E1,7.31E2,1.8E1,9E0,3E0,1.3E1,7.25E2,6E0,1.1E1,7E0,7E0,2E0,2E0,1E0,7E0,6E0,7.22E2,3E0,4E0,2E0,3E0,8E0,5E0,2E0,6E0,1E0],"tree_param":{"num_deleted":"0","num_feature":"280","num_nodes":"29","size_leaf_vector":"1"}},{"base_weights":[-5.3926626E-5,-7.2963545E-3,1.352411E-4,1.5369154E-3,-1.4663295E-2,-1.9616737E-4,3.773443E-3,6.3030985E-3,-4.4898875E-3,-1.4065251E-4,-7.783507E-4,8.0502374E-5,-4.783981E-3,8.3174985E-3,-4.8064956E-4,1.1388564E-4,3.8731817E-4,-1.1195853E-4,-3.373189E-4,7.133163E-6,-6.831582E-4,-8.0166385E-4,-9.5595504E-5,1.2719877E-4,7.153162E-4,6.249122E-5,-4.3822496E-4],"categories":[],"categories_nodes":[],"categories_segments":[],"categories_sizes":[],"default_left":[0,0,0,0,0,0,0,0,0,0,0,0,0,0,0,0,0,0,0,0,0,0,0,0,0,0,0],"id":27,"left_children":[1,3,5,7,9,11,13,15,17,-1,-1,19,21,23,25,-1,-1,-1,-1,-1,-1,-1,-1,-1,-1,-1,-1],"loss_changes":[1.0764631E-3,1.3240199E-3,9.243302E-4,3.1554868E-4,7.401151E-5,8.9270953E-4,1.2411709E-3,1.7214174E-5,1.0287316E-5,0E0,0E0,5.6921656E-4,1.2616968E-3,1.0354805E-3,4.983436E-4,0E0,0E0,0E0,0E0,0E0,0E0,0E0,0E0,0E0,0E0,0E0,0E0],"parents":[2147483647,0,0,1,1,2,2,3,3,4,4,5,5,6,6,7,7,8,8,11,11,12,12,13,13,14,14],"right_children":[2,4,6,8,10,12,14,16,18,-1,-1,20,22,24,26,-1,-1,-1,-1,-1,-1,-1,-1,-1,-1,-1,-1],"split_conditions":[-2.4520595E0,-1.252797E-2,1.6606685E0,-2.062228E-1,-1.8775551E0,1.7563547E0,-2.1728143E-1,-1.0796081E0,1.2981893E0,-1.4065251E-4,-7.783507E-4,4.427766E0,-6.3733643E-1,6.298085E-1,1.5859741E0,1.1388564E-4,3.8731817E-4,-1.1195853E-4,-3.373189E-4,7.133163E-6,-6.831582E-4,-8.0166385E-4,-9.5595504E-5,1.2719877E-4,7.153162E-4,6.249122E-5,-4.3822496E-4],"split_indices":[2,156,200,44,7,4,271,0,0,0,0,102,212,242,130,0,0,0,0,0,0,0,0,0,0,0,0],"split_type":[0,0,0,0,0,0,0,0,0,0,0,0,0,0,0,0,0,0,0,0,0,0,0,0,0,0,0],"sum_hessian":[7.84E2,1.9E1,7.65E2,9E0,1E1,7.02E2,6.3E1,5E0,4E0,1E0,9E0,6.63E2,3.9E1,3E1,3.3E1,2E0,3E0,3E0,1E0,6.61E2,2E0,7E0,3.2E1,1.6E1,1.4E1,2.8E1,5E0],"tree_param":{"num_deleted":"0","num_feature":"280","num_nodes":"27","size_leaf_vector":"1"}},{"base_weights":[-3.02761E-4,-1.4520728E-4,-1.0321582E-2,-3.0501102E-5,-1.2561889E-2,-1.0292283E-3,-2.617019E-3,-3.6998937E-4,2.9812E-3,-1.371362E-4,-6.8706484E-4,1.421956E-4,-4.9113147E-3,-7.3719407E-6,-2.1258085E-4,-6.007217E-5,3.247671E-4,-1.1371961E-5,-2.9013012E-4],"categories":[],"categories_nodes":[],"categories_segments":[],"categories_sizes":[],"default_left":[0,0,0,0,0,0,0,0,0,0,0,0,0,0,0,0,0,0,0],"id":28,"left_children":[1,3,5,7,9,-1,11,13,15,-1,-1,-1,17,-1,-1,-1,-1,-1,-1],"loss_changes":[1.2234193E-3,1.0891834E-3,8.9499156E-4,7.771329E-4,4.337693E-5,0E0,1.1419928E-4,5.893884E-4,1.1395807E-3,0E0,0E0,0E0,2.3728338E-5,0E0,0E0,0E0,0E0,0E0,0E0],"parents":[2147483647,0,0,1,1,2,2,3,3,4,4,6,6,7,7,8,8,12,12],"right_children":[2,4,6,8,10,-1,12,14,16,-1,-1,-1,18,-1,-1,-1,-1,-1,-1],"split_conditions":[3.0916104E0,3.8040183E0,-3.8137108E-2,-3.8136795E-2,-2.9968636E0,-1.0292283E-3,-4.7660598E-1,-3.813761E-2,-3.7003502E-1,-1.371362E-4,-6.8706484E-4,1.421956E-4,-1.0393722E0,-7.3719407E-6,-2.1258085E-4,-6.007217E-5,3.247671E-4,-1.1371961E-5,-2.9013012E-4],"split_indices":[2,198,204,204,2,0,43,204,18,0,0,0,0,0,0,0,0,0,0],"split_type":[0,0,0,0,0,0,0,0,0,0,0,0,0,0,0,0,0,0,0],"sum_hessian":[7.75E2,7.64E2,1.1E1,7.58E2,6E0,4E0,7E0,6.82E2,7.6E1,1E0,5E0,2E0,5E0,6.46E2,3.6E1,3.5E1,4.1E1,1E0,4E0],"tree_param":{"num_deleted":"0","num_feature":"280","num_nodes":"19","size_leaf_vector":"1"}},{"base_weights":[6.7710316E-5,1.7779942E-4,-1.0495546E-2,8.8564484E-5,9.853512E-3,-9.633603E-4,-9.893447E-4,-6.894327E-3,1.9072591E-4,-4.0758434E-3,1.0659745E-3,9.314599E-4,-1.2685302E-4,-6.8543956E-4,-1.3126522E-4,-1.8259637E-4,1.8621218E-5,5.3178363E-5,-4.8735188E-4,-1.1087664E-5,8.094715E-5],"categories":[],"categories_nodes":[],"categories_segments":[],"categories_sizes":[],"default_left":[0,0,0,0,0,0,0,0,0,0,0,0,0,0,0,0,0,0,0,0,0],"id":29,"left_children":[1,3,5,7,9,11,-1,13,15,17,-1,19,-1,-1,-1,-1,-1,-1,-1,-1,-1],"loss_changes":[9.019503E-4,6.613641E-4,6.894729E-4,5.441988E-4,1.2048907E-3,1.7272563E-5,0E0,2.8401235E-4,5.2571134E-4,1.26953E-4,0E0,2.7374497E-6,0E0,0E0,0E0,0E0,0E0,0E0,0E0,0E0,0E0],"parents":[2147483647,0,0,1,1,2,2,3,3,4,4,5,5,7,7,8,8,9,9,11,11],"right_children":[2,4,6,8,10,12,-1,14,16,18,-1,20,-1,-1,-1,-1,-1,-1,-1,-1,-1],"split_conditions":[3.0916104E0,2.645389E0,-1.945721E-1,-2.9978151E0,-7.7714497E-1,1.0720936E0,-9.893447E-4,2.2381002E-2,-1.6927347E0,-9.284464E-1,1.0659745E-3,-1.0393722E0,-1.2685302E-4,-6.8543956E-4,-1.3126522E-4,-1.8259637E-4,1.8621218E-5,5.3178363E-5,-4.8735188E-4,-1.1087664E-5,8.094715E-5],"split_indices":[2,2,186,156,142,0,0,162,103,0,0,0,0,0,0,0,0,0,0,0,0],"split_type":[0,0,0,0,0,0,0,0,0,0,0,0,0,0,0,0,0,0,0,0,0],"sum_hessian":[7.73E2,7.66E2,7E0,7.6E2,6E0,4E0,3E0,1E1,7.5E2,3E0,3E0,2E0,2E0,3E0,7E0,3.3E1,7.17E2,2E0,1E0,1E0,1E0],"tree_param":{"num_deleted":"0","num_feature":"280","num_nodes":"21","size_leaf_vector":"1"}},{"base_weights":[6.4496446E-5,3.4546974E-4,-3.1342711E-3,-1.3021578E-4,5.4631736E-3,1.6619051E-3,-7.018695E-3,6.499917E-4,-1.901546E-4,2.0844873E-2,3.4061722E-3,-3.6291787E-3,6.842195E-3,-8.73411E-3,8.4593E-3,-3.090518E-5,7.550569E-5,2.5136018E-4,1.1321642E-3,-1.6082013E-6,4.7124346E-4,1.7927642E-4,-3.289333E-4,7.1020756E-4,1.436917E-4,-2.6566375E-4,-9.1662275E-4,4.9138017E-4,1.0885981E-4],"categories":[],"categories_nodes":[],"categories_segments":[],"categories_sizes":[],"default_left":[0,0,0,0,0,0,0,0,0,0,0,0,0,0,0,0,0,0,0,0,0,0,0,0,0,0,0,0,0],"id":30,"left_children":[1,3,5,7,9,11,13,-1,15,17,19,21,23,25,27,-1,-1,-1,-1,-1,-1,-1,-1,-1,-1,-1,-1,-1,-1],"loss_changes":[7.0122327E-4,1.7461887E-3,1.1853784E-3,5.195308E-4,1.8590495E-3,8.1970275E-4,1.0031759E-3,0E0,4.7752983E-4,8.5294014E-5,1.1384897E-3,3.4278329E-4,3.9740314E-4,9.532941E-4,1.2986653E-5,0E0,0E0,0E0,0E0,0E0,0E0,0E0,0E0,0E0,0E0,0E0,0E0,0E0,0E0],"parents":[2147483647,0,0,1,1,2,2,3,3,4,4,5,5,6,6,8,8,9,9,10,10,11,11,12,12,13,13,14,14],"right_children":[2,4,6,8,10,12,14,-1,16,18,20,22,24,26,28,-1,-1,-1,-1,-1,-1,-1,-1,-1,-1,-1,-1,-1,-1],"split_conditions":[7.957253E-3,-3.8137075E-2,9.370803E-2,-1.3810545E0,-1.3131447E0,-4.2891082E-1,1.2129565E0,6.499917E-4,4.9182117E-1,-1.8835819E0,7.956904E-3,4.2968392E-2,1.5045994E-2,1.0180392E0,2.7256215E0,-3.090518E-5,7.550569E-5,2.5136018E-4,1.1321642E-3,-1.6082013E-6,4.7124346E-4,1.7927642E-4,-3.289333E-4,7.1020756E-4,1.436917E-4,-2.6566375E-4,-9.1662275E-4,4.9138017E-4,1.0885981E-4],"split_indices":[106,204,128,107,188,183,22,0,44,5,106,232,92,1,1,0,0,0,0,0,0,0,0,0,0,0,0,0,0],"split_type":[0,0,0,0,0,0,0,0,0,0,0,0,0,0,0,0,0,0,0,0,0,0,0,0,0,0,0,0,0],"sum_hessian":[7.78E2,7.16E2,6.2E1,6.56E2,6E1,2.8E1,3.4E1,2E0,6.54E2,6E0,5.4E1,1.4E1,1.4E1,3.1E1,3E0,5.23E2,1.31E2,1E0,5E0,3.5E1,1.9E1,4E0,1E1,4E0,1E1,2.4E1,7E0,2E0,1E0],"tree_param":{"num_deleted":"0","num_feature":"280","num_nodes":"29","size_leaf_vector":"1"}},{"base_weights":[-1.2623261E-4,-6.899743E-5,-1.4774518E-2,2.6213852E-4,-2.63828E-3,-2.2098744E-4,-8.8710146E-4,5.2937013E-3,2.2872704E-5,-1.2321305E-2,-1.515961E-3,5.8288965E-4,-1.633412E-4,6.9155717E-6,-5.3251156E-4,-7.37233E-4,-1.2798571E-4,-1.2675193E-4,2.5534455E-4],"categories":[],"categories_nodes":[],"categories_segments":[],"categories_sizes":[],"default_left":[0,0,0,0,0,0,0,0,0,0,0,0,0,0,0,0,0,0,0],"id":31,"left_children":[1,3,5,7,9,-1,-1,11,13,15,17,-1,-1,-1,-1,-1,-1,-1,-1],"loss_changes":[6.462233E-4,6.557936E-4,1.3768324E-5,8.2212966E-4,9.376564E-4,0E0,0E0,1.7269629E-3,8.060275E-4,1.7515989E-4,5.528821E-4,0E0,0E0,0E0,0E0,0E0,0E0,0E0,0E0],"parents":[2147483647,0,0,1,1,2,2,3,3,4,4,7,7,8,8,9,9,10,10],"right_children":[2,4,6,8,10,-1,-1,12,14,16,18,-1,-1,-1,-1,-1,-1,-1,-1],"split_conditions":[5.0790877E0,1.4191259E0,3.3669677E0,-1.5513414E0,1.3335764E0,-2.2098744E-4,-8.8710146E-4,-2.036142E-1,3.8008094E0,1.0865648E0,1.2622482E0,5.8288965E-4,-1.633412E-4,6.9155717E-6,-5.3251156E-4,-7.37233E-4,-1.2798571E-4,-1.2675193E-4,2.5534455E-4],"split_indices":[99,252,1,100,182,0,0,170,268,37,5,0,0,0,0,0,0,0,0],"split_type":[0,0,0,0,0,0,0,0,0,0,0,0,0,0,0,0,0,0,0],"sum_hessian":[7.71E2,7.69E2,2E0,6.82E2,8.7E1,1E0,1E0,3E1,6.52E2,8E0,7.9E1,1.7E1,1.3E1,6.46E2,6E0,6E0,2E0,6.9E1,1E1],"tree_param":{"num_deleted":"0","num_feature":"280","num_nodes":"19","size_leaf_vector":"1"}},{"base_weights":[1.626646E-4,2.498121E-4,-9.857634E-3,-2.5224419E-5,3.0425468E-3,-1.4709235E-3,-1.0274803E-3,1.6198916E-4,-6.698127E-3,1.253661E-3,1.7196925E-2,-2.3438086E-4,1.1180389E-4,1.4409758E-6,4.760466E-4,-4.869144E-4,3.9485446E-4,-8.681462E-5,3.2169218E-4,4.4454705E-6,1.1442391E-3],"categories":[],"categories_nodes":[],"categories_segments":[],"categories_sizes":[],"default_left":[0,0,0,0,0,0,0,0,0,0,0,0,0,0,0,0,0,0,0,0,0],"id":32,"left_children":[1,3,5,7,9,11,-1,13,15,17,19,-1,-1,-1,-1,-1,-1,-1,-1,-1,-1],"loss_changes":[7.089167E-4,6.1686424E-4,5.9746654E-4,9.155418E-4,1.801522E-3,7.010331E-5,0E0,8.8835676E-4,9.643402E-4,1.0179238E-3,7.764285E-4,0E0,0E0,0E0,0E0,0E0,0E0,0E0,0E0,0E0,0E0],"parents":[2147483647,0,0,1,1,2,2,3,3,4,4,5,5,7,7,8,8,9,9,10,10],"right_children":[2,4,6,8,10,12,-1,14,16,18,20,-1,-1,-1,-1,-1,-1,-1,-1,-1,-1],"split_conditions":[3.8008094E0,9.1559255E-1,1.8609793E-1,2.6738918E0,7.683229E-1,-1.0199002E0,-1.0274803E-3,2.1099653E0,-9.131604E-1,1.4005212E-1,-3.3412797E-3,-2.3438086E-4,1.1180389E-4,1.4409758E-6,4.760466E-4,-4.869144E-4,3.9485446E-4,-8.681462E-5,3.2169218E-4,4.4454705E-6,1.1442391E-3],"split_indices":[268,268,2,99,198,0,0,99,112,44,8,0,0,0,0,0,0,0,0,0,0],"split_type":[0,0,0,0,0,0,0,0,0,0,0,0,0,0,0,0,0,0,0,0,0],"sum_hessian":[8.08E2,8.02E2,6E0,7.31E2,7.1E1,4E0,2E0,7.12E2,1.9E1,6.4E1,7E0,2E0,2E0,7.03E2,9E0,1.6E1,3E0,4.1E1,2.3E1,2E0,5E0],"tree_param":{"num_deleted":"0","num_feature":"280","num_nodes":"21","size_leaf_vector":"1"}},{"base_weights":[3.1080138E-4,2.2597397E-4,1.1145186E-2,7.629772E-5,5.560794E-3,1.702219E-4,8.87556E-4,-6.2040864E-3,1.9549592E-4,1.5315934E-4,9.6037565E-3,7.151748E-5,-1.0116071E-3,3.9747427E-4,6.873291E-8,-4.2421085E-5,6.622124E-5,5.586483E-4,5.8590285E-5],"categories":[],"categories_nodes":[],"categories_segments":[],"categories_sizes":[],"default_left":[0,0,0,0,0,0,0,0,0,0,0,0,0,0,0,0,0,0,0],"id":33,"left_children":[1,3,5,7,9,-1,-1,11,13,15,17,-1,-1,-1,-1,-1,-1,-1,-1],"loss_changes":[7.097473E-4,6.1441754E-4,2.4637667E-4,5.6267076E-4,4.576493E-4,0E0,0E0,1.5282871E-3,1.109332E-3,1.2854843E-5,1.456854E-4,0E0,0E0,0E0,0E0,0E0,0E0,0E0,0E0],"parents":[2147483647,0,0,1,1,2,2,3,3,4,4,7,7,8,8,9,9,10,10],"right_children":[2,4,6,8,10,-1,-1,12,14,16,18,-1,-1,-1,-1,-1,-1,-1,-1],"split_conditions":[4.1567364E0,-1.3232941E-2,-3.3415784E-3,3.530353E-2,-3.5348544E-1,1.702219E-4,8.87556E-4,2.807658E-1,-1.3917716E0,-3.3419733E-3,1.3404024E0,7.151748E-5,-1.0116071E-3,3.9747427E-4,6.873291E-8,-4.2421085E-5,6.622124E-5,5.586483E-4,5.8590285E-5],"split_indices":[116,190,8,246,116,0,0,128,205,8,17,0,0,0,0,0,0,0,0],"split_type":[0,0,0,0,0,0,0,0,0,0,0,0,0,0,0,0,0,0,0],"sum_hessian":[7.74E2,7.69E2,5E0,7.49E2,2E1,3E0,2E0,1.3E1,7.36E2,9E0,1.1E1,9E0,4E0,1.7E1,7.19E2,5E0,4E0,9E0,2E0],"tree_param":{"num_deleted":"0","num_feature":"280","num_nodes":"19","size_leaf_vector":"1"}},{"base_weights":[-1.1107348E-4,2.0461495E-3,-4.3938987E-4,7.918049E-3,3.7420014E-4,-8.494833E-3,-3.4340922E-4,2.164522E-2,2.9024333E-3,5.2823164E-3,-8.0347236E-4,7.0971274E-3,-1.4875007E-2,6.136629E-5,-2.3394197E-3,1.4929657E-4,1.2389946E-3,2.2966729E-4,-3.5416227E-4,4.5369967E-4,1.7819524E-5,-4.8669457E-4,-1.1638346E-5,1.0931592E-4,4.2296862E-4,-2.0329161E-4,-8.111838E-4,-5.8264905E-6,3.798352E-4,-5.409903E-4,-4.7261092E-5],"categories":[],"categories_nodes":[],"categories_segments":[],"categories_sizes":[],"default_left":[0,0,0,0,0,0,0,0,0,0,0,0,0,0,0,0,0,0,0,0,0,0,0,0,0,0,0,0,0,0,0],"id":34,"left_children":[1,3,5,7,9,11,13,15,17,19,21,23,25,27,29,-1,-1,-1,-1,-1,-1,-1,-1,-1,-1,-1,-1,-1,-1,-1,-1],"loss_changes":[5.5758486E-4,1.018059E-3,5.2515574E-4,1.5207314E-3,4.782168E-4,9.014053E-4,5.463084E-4,2.7695321E-4,3.3646417E-4,2.9560644E-4,3.3920907E-4,1.5743135E-6,2.1505053E-5,7.5559074E-4,1.3376332E-3,0E0,0E0,0E0,0E0,0E0,0E0,0E0,0E0,0E0,0E0,0E0,0E0,0E0,0E0,0E0,0E0],"parents":[2147483647,0,0,1,1,2,2,3,3,4,4,5,5,6,6,7,7,8,8,9,9,10,10,11,11,12,12,13,13,14,14],"right_children":[2,4,6,8,10,12,14,16,18,20,22,24,26,28,30,-1,-1,-1,-1,-1,-1,-1,-1,-1,-1,-1,-1,-1,-1,-1,-1],"split_conditions":[-7.415413E-1,-3.881548E-1,-2.9953115E0,-1.6055319E0,-7.893013E-1,5.843659E-1,7.295181E-1,2.71928E-2,6.06143E-1,-3.9259605E-2,-6.910676E-1,1.3063165E0,-1.1133989E0,2.5430048E0,-3.9746195E-1,1.4929657E-4,1.2389946E-3,2.2966729E-4,-3.5416227E-4,4.5369967E-4,1.7819524E-5,-4.8669457E-4,-1.1638346E-5,1.0931592E-4,4.2296862E-4,-2.0329161E-4,-8.111838E-4,-5.8264905E-6,3.798352E-4,-5.409903E-4,-4.7261092E-5],"split_indices":[240,9,100,21,156,1,256,1,58,130,156,3,3,228,107,0,0,0,0,0,0,0,0,0,0,0,0,0,0,0,0],"split_type":[0,0,0,0,0,0,0,0,0,0,0,0,0,0,0,0,0,0,0,0,0,0,0,0,0,0,0,0,0,0,0],"sum_hessian":[7.85E2,1.03E2,6.82E2,2.2E1,8.1E1,7E0,6.75E2,5E0,1.7E1,1.5E1,6.6E1,2E0,5E0,5.62E2,1.13E2,1E0,4E0,1.5E1,2E0,8E0,7E0,3E0,6.3E1,1E0,1E0,1E0,4E0,5.5E2,1.2E1,1.5E1,9.8E1],"tree_param":{"num_deleted":"0","num_feature":"280","num_nodes":"31","size_leaf_vector":"1"}},{"base_weights":[3.674336E-5,-1.4448045E-4,4.8702233E-3,-5.393143E-3,7.3302735E-6,9.4763585E-4,1.1836117E-2,3.3737735E-3,-1.3669774E-2,-3.521909E-4,2.6911122E-3,3.5775383E-3,-2.3719822E-3,1.3788133E-2,1.3426853E-4,-1.7502322E-4,4.842858E-4,-1.20818986E-4,-7.2767376E-4,-1.2603838E-5,-4.698981E-4,8.303958E-4,5.2541298E-5,2.5138343E-4,-1.0855319E-5,-1.989324E-4,3.155057E-5,1.6338103E-4,7.4121304E-4],"categories":[],"categories_nodes":[],"categories_segments":[],"categories_sizes":[],"default_left":[0,0,0,0,0,0,0,0,0,0,0,0,0,0,0,0,0,0,0,0,0,0,0,0,0,0,0,0,0],"id":35,"left_children":[1,3,5,7,9,11,13,15,17,19,21,23,25,27,-1,-1,-1,-1,-1,-1,-1,-1,-1,-1,-1,-1,-1,-1,-1],"loss_changes":[6.7868247E-4,5.952515E-4,7.5386494E-4,1.56989E-3,7.02413E-4,1.74361E-4,1.4159782E-4,5.111922E-4,7.4224314E-5,5.790324E-4,1.9457168E-3,6.1621555E-5,4.593383E-5,3.8764556E-5,0E0,0E0,0E0,0E0,0E0,0E0,0E0,0E0,0E0,0E0,0E0,0E0,0E0,0E0,0E0],"parents":[2147483647,0,0,1,1,2,2,3,3,4,4,5,5,6,6,7,7,8,8,9,9,10,10,11,11,12,12,13,13],"right_children":[2,4,6,8,10,12,14,16,18,20,22,24,26,28,-1,-1,-1,-1,-1,-1,-1,-1,-1,-1,-1,-1,-1,-1,-1],"split_conditions":[1.9666522E0,-2.4520595E0,7.805469E-1,-1.252797E-2,-3.8137075E-2,-1.3237942E-2,1.297741E-1,3.6141455E-2,-1.8775551E0,3.0916104E0,-1.111254E0,3.215308E-1,-5.707432E-1,-2.4520595E0,1.3426853E-4,-1.7502322E-4,4.842858E-4,-1.20818986E-4,-7.2767376E-4,-1.2603838E-5,-4.698981E-4,8.303958E-4,5.2541298E-5,2.5138343E-4,-1.0855319E-5,-1.989324E-4,3.155057E-5,1.6338103E-4,7.4121304E-4],"split_indices":[142,2,114,156,204,190,6,226,7,2,245,257,44,2,0,0,0,0,0,0,0,0,0,0,0,0,0,0,0],"split_type":[0,0,0,0,0,0,0,0,0,0,0,0,0,0,0,0,0,0,0,0,0,0,0,0,0,0,0,0,0],"sum_hessian":[7.73E2,7.46E2,2.7E1,2E1,7.26E2,1.8E1,9E0,1E1,1E1,6.41E2,8.5E1,1E1,8E0,7E0,2E0,5E0,5E0,1E0,9E0,6.35E2,6E0,8E0,7.7E1,7E0,3E0,5E0,3E0,1E0,6E0],"tree_param":{"num_deleted":"0","num_feature":"280","num_nodes":"29","size_leaf_vector":"1"}},{"base_weights":[1.6234015E-5,-1.0193913E-3,8.6680276E-4,-5.809939E-4,-1.0888441E-2,3.4102E-4,6.456462E-3,-7.4846395E-3,-3.0560247E-4,-2.546252E-3,-8.0834905E-4,8.9237856E-4,2.512887E-4,1.1893238E-2,6.7987246E-4,-7.142256E-5,-7.156059E-4,4.2479696E-6,-2.0940078E-4,-2.3880802E-4,1.0095063E-4,1.9860357E-5,-4.6254857E-4,-5.4055865E-5,7.19675E-4,3.6956053E-4,-1.1224889E-4],"categories":[],"categories_nodes":[],"categories_segments":[],"categories_sizes":[],"default_left":[0,0,0,0,0,0,0,0,0,0,0,0,0,0,0,0,0,0,0,0,0,0,0,0,0,0,0],"id":36,"left_children":[1,3,5,7,9,11,13,15,17,19,-1,-1,21,23,25,-1,-1,-1,-1,-1,-1,-1,-1,-1,-1,-1,-1],"loss_changes":[6.9148606E-4,1.5252781E-3,1.2644841E-3,6.4412237E-4,6.193536E-4,6.1601476E-4,1.1539371E-3,5.1708624E-4,4.9770955E-4,8.090398E-5,0E0,0E0,5.499771E-4,6.3190726E-4,3.8955663E-4,0E0,0E0,0E0,0E0,0E0,0E0,0E0,0E0,0E0,0E0,0E0,0E0],"parents":[2147483647,0,0,1,1,2,2,3,3,4,4,5,5,6,6,7,7,8,8,9,9,12,12,13,13,14,14],"right_children":[2,4,6,8,10,12,14,16,18,20,-1,-1,22,24,26,-1,-1,-1,-1,-1,-1,-1,-1,-1,-1,-1,-1],"split_conditions":[-1.6846623E-1,2.0231392E0,9.3651026E-1,-2.18669E0,-1.3407372E-1,-2.9953115E0,6.9284654E-1,-1.2356412E0,1.2299209E0,2.6838E-1,-8.0834905E-4,8.9237856E-4,2.9144778E0,-4.1374776E-1,-1.1029166E0,-7.142256E-5,-7.156059E-4,4.2479696E-6,-2.0940078E-4,-2.3880802E-4,1.0095063E-4,1.9860357E-5,-4.6254857E-4,-5.4055865E-5,7.19675E-4,3.6956053E-4,-1.1224889E-4],"split_indices":[145,1,197,35,156,100,169,272,32,4,0,0,2,261,224,0,0,0,0,0,0,0,0,0,0,0,0],"split_type":[0,0,0,0,0,0,0,0,0,0,0,0,0,0,0,0,0,0,0,0,0,0,0,0,0,0,0],"sum_hessian":[7.83E2,3.53E2,4.3E2,3.39E2,1.4E1,3.94E2,3.6E1,1.2E1,3.27E2,6E0,8E0,1E0,3.93E2,1.8E1,1.8E1,7E0,5E0,2.98E2,2.9E1,4E0,2E0,3.88E2,5E0,3E0,1.5E1,5E0,1.3E1],"tree_param":{"num_deleted":"0","num_feature":"280","num_nodes":"27","size_leaf_vector":"1"}},{"base_weights":[1.3251939E-4,-1.8406732E-4,2.649134E-3,-6.4707514E-5,-7.567642E-3,1.2115837E-3,1.4973284E-2,-1.4894985E-4,1.42516075E-2,3.6297113E-4,-7.118491E-4,2.8588157E-3,-4.529526E-3,1.9377762E-3,1.0584038E-3,-3.5622622E-6,-4.4264714E-4,1.4652105E-4,8.5242646E-4,-7.953784E-5,1.4234758E-4,4.1682716E-4,5.4373366E-5,-5.0314533E-4,4.517346E-5,1.6857705E-4,-5.9087964E-5],"categories":[],"categories_nodes":[],"categories_segments":[],"categories_sizes":[],"default_left":[0,0,0,0,0,0,0,0,0,0,0,0,0,0,0,0,0,0,0,0,0,0,0,0,0,0,0],"id":37,"left_children":[1,3,5,7,9,11,13,15,17,19,-1,21,23,25,-1,-1,-1,-1,-1,-1,-1,-1,-1,-1,-1,-1,-1],"loss_changes":[6.203411E-4,6.093712E-4,1.5232018E-3,8.24642E-4,5.8697903E-4,7.6004735E-4,6.85751E-4,4.586044E-4,7.669855E-5,3.364693E-5,0E0,5.925181E-4,5.5022247E-4,2.1875074E-5,0E0,0E0,0E0,0E0,0E0,0E0,0E0,0E0,0E0,0E0,0E0,0E0,0E0],"parents":[2147483647,0,0,1,1,2,2,3,3,4,4,5,5,6,6,7,7,8,8,9,9,11,11,12,12,13,13],"right_children":[2,4,6,8,10,12,14,16,18,20,-1,22,24,26,-1,-1,-1,-1,-1,-1,-1,-1,-1,-1,-1,-1,-1],"split_conditions":[7.861488E-1,2.9144778E0,8.0878234E-1,2.645389E0,3.203998E-2,1.8634624E0,-3.3412797E-3,2.7689307E0,-9.284464E-1,4.279301E0,-7.118491E-4,-5.6923497E-1,-1.4637904E-1,1.2055293E0,1.0584038E-3,-3.5622622E-6,-4.4264714E-4,1.4652105E-4,8.5242646E-4,-7.953784E-5,1.4234758E-4,4.1682716E-4,5.4373366E-5,-5.0314533E-4,4.517346E-5,1.6857705E-4,-5.9087964E-5],"split_indices":[198,2,268,2,19,228,8,259,0,2,0,16,117,0,0,0,0,0,0,0,0,0,0,0,0,0,0],"split_type":[0,0,0,0,0,0,0,0,0,0,0,0,0,0,0,0,0,0,0,0,0,0,0,0,0,0,0],"sum_hessian":[7.77E2,6.91E2,8.6E1,6.81E2,1E1,7.8E1,8E0,6.78E2,3E0,5E0,5E0,6.1E1,1.7E1,3E0,5E0,6.73E2,5E0,1E0,2E0,3E0,2E0,1.4E1,4.7E1,8E0,9E0,2E0,1E0],"tree_param":{"num_deleted":"0","num_feature":"280","num_nodes":"27","size_leaf_vector":"1"}},{"base_weights":[-3.2538086E-5,-2.0060794E-4,4.8362752E-3,-3.0281132E-3,9.361384E-5,1.5435554E-3,1.0884351E-2,-1.1819233E-3,-9.841761E-3,9.2109805E-3,-7.9558384E-7,-4.075468E-3,3.4400956E-3,6.976376E-4,1.7803312E-4,-1.9384865E-5,-5.804247E-4,-6.648759E-4,-1.3537147E-5,9.405525E-5,7.119055E-4,1.6789772E-5,-1.17450174E-4,-4.359148E-5,-2.3292101E-4,2.4267756E-4,-3.7417515E-6],"categories":[],"categories_nodes":[],"categories_segments":[],"categories_sizes":[],"default_left":[0,0,0,0,0,0,0,0,0,0,0,0,0,0,0,0,0,0,0,0,0,0,0,0,0,0,0],"id":38,"left_children":[1,3,5,7,9,11,13,15,17,19,21,23,25,-1,-1,-1,-1,-1,-1,-1,-1,-1,-1,-1,-1,-1,-1],"loss_changes":[6.376082E-4,6.267145E-4,5.009796E-4,8.814972E-4,5.8791E-4,2.0584067E-4,1.5256705E-4,4.6751945E-4,4.9252645E-4,2.3115426E-4,5.358799E-4,5.276488E-6,6.9917995E-5,0E0,0E0,0E0,0E0,0E0,0E0,0E0,0E0,0E0,0E0,0E0,0E0,0E0,0E0],"parents":[2147483647,0,0,1,1,2,2,3,3,4,4,5,5,6,6,7,7,8,8,9,9,10,10,11,11,12,12],"right_children":[2,4,6,8,10,12,14,16,18,20,22,24,26,-1,-1,-1,-1,-1,-1,-1,-1,-1,-1,-1,-1,-1,-1],"split_conditions":[1.9666522E0,-9.6979105E-1,9.4090134E-1,7.956626E-3,-2.0404353E0,-2.6061875E-1,9.681673E-1,2.8319454E0,4.6440655E-1,-4.6953788E-1,1.4164891E0,-1.1063706E0,2.9097825E-1,6.976376E-4,1.7803312E-4,-1.9384865E-5,-5.804247E-4,-6.648759E-4,-1.3537147E-5,9.405525E-5,7.119055E-4,1.6789772E-5,-1.17450174E-4,-4.359148E-5,-2.3292101E-4,2.4267756E-4,-3.7417515E-6],"split_indices":[142,16,114,106,229,173,272,270,72,1,266,0,184,0,0,0,0,0,0,0,0,0,0,0,0,0,0],"split_type":[0,0,0,0,0,0,0,0,0,0,0,0,0,0,0,0,0,0,0,0,0,0,0,0,0,0,0],"sum_hessian":[7.77E2,7.52E2,2.5E1,7E1,6.82E2,1.7E1,8E0,5.6E1,1.4E1,6E0,6.76E2,4E0,1.3E1,5E0,3E0,5.3E1,3E0,1E1,4E0,3E0,3E0,5.92E2,8.4E1,1E0,3E0,9E0,4E0],"tree_param":{"num_deleted":"0","num_feature":"280","num_nodes":"27","size_leaf_vector":"1"}},{"base_weights":[-5.4634293E-5,1.991633E-3,-4.3407394E-4,1.1623235E-3,1.5213013E-2,-2.847301E-4,-9.918802E-3,1.0585347E-2,5.4080965E-4,1.098731E-3,-5.636681E-5,-4.6287582E-4,5.5434313E-3,-7.619643E-4,-1.5504619E-3,6.9267786E-4,8.049408E-5,-5.009877E-5,1.6480222E-4,-5.934315E-6,-1.5827634E-4,-2.657985E-4,4.396835E-4,1.16137606E-4,-1.5497266E-4],"categories":[],"categories_nodes":[],"categories_segments":[],"categories_sizes":[],"default_left":[0,0,0,0,0,0,0,0,0,0,0,0,0,0,0,0,0,0,0,0,0,0,0,0,0],"id":39,"left_children":[1,3,5,7,9,11,13,15,17,-1,-1,19,21,-1,23,-1,-1,-1,-1,-1,-1,-1,-1,-1,-1],"loss_changes":[5.956137E-4,1.2980716E-3,9.1364206E-4,6.6192093E-4,7.9818175E-4,6.64977E-4,4.2160822E-4,1.8303335E-4,4.6238187E-4,0E0,0E0,5.763632E-4,7.173641E-4,0E0,3.7197136E-5,0E0,0E0,0E0,0E0,0E0,0E0,0E0,0E0,0E0,0E0],"parents":[2147483647,0,0,1,1,2,2,3,3,4,4,5,5,6,6,7,7,8,8,11,11,12,12,14,14],"right_children":[2,4,6,8,10,12,14,16,18,-1,-1,20,22,-1,24,-1,-1,-1,-1,-1,-1,-1,-1,-1,-1],"split_conditions":[-5.968109E-1,1.9682661E0,2.9144778E0,-1.5607126E0,4.021917E-2,2.5117078E0,-1.75238E-1,1.4869117E0,-1.3091096E-1,1.098731E-3,-5.636681E-5,5.502986E-1,2.2725854E-2,-7.619643E-4,5.843659E-1,6.9267786E-4,8.049408E-5,-5.009877E-5,1.6480222E-4,-5.934315E-6,-1.5827634E-4,-2.657985E-4,4.396835E-4,1.16137606E-4,-1.5497266E-4],"split_indices":[240,2,2,187,50,197,88,0,274,0,0,197,78,0,1,0,0,0,0,0,0,0,0,0,0],"split_type":[0,0,0,0,0,0,0,0,0,0,0,0,0,0,0,0,0,0,0,0,0,0,0,0,0],"sum_hessian":[7.65E2,1.19E2,6.46E2,1.13E2,6E0,6.37E2,9E0,6E0,1.07E2,4E0,2E0,6.19E2,1.8E1,5E0,4E0,4E0,2E0,6.9E1,3.8E1,5.5E2,6.9E1,4E0,1.4E1,1E0,3E0],"tree_param":{"num_deleted":"0","num_feature":"280","num_nodes":"25","size_leaf_vector":"1"}},{"base_weights":[5.88913E-5,-9.1712E-5,4.6228277E-3,5.694518E-4,-1.1910099E-3,6.206647E-4,1.1668821E-2,-5.719824E-4,6.7023083E-4,-2.1875598E-3,2.0841458E-3,4.1556945E-3,-2.9833277E-3,6.670545E-4,1.9386271E-4,2.4187711E-5,3.3614037E-4,-6.8648835E-5,-3.0786602E-4,2.5309722E-5,6.829131E-4,3.1673143E-4,1.00522804E-4,9.424268E-5,-1.9137286E-4],"categories":[],"categories_nodes":[],"categories_segments":[],"categories_sizes":[],"default_left":[0,0,0,0,0,0,0,0,0,0,0,0,0,0,0,0,0,0,0,0,0,0,0,0,0],"id":40,"left_children":[1,3,5,7,9,11,13,-1,15,17,19,21,23,-1,-1,-1,-1,-1,-1,-1,-1,-1,-1,-1,-1],"loss_changes":[5.3792686E-4,5.5160467E-4,6.9773785E-4,5.813333E-4,9.3475805E-4,2.2898153E-4,6.5539614E-5,0E0,5.2834855E-4,6.997263E-4,1.2167334E-3,2.9333518E-5,4.419857E-5,0E0,0E0,0E0,0E0,0E0,0E0,0E0,0E0,0E0,0E0,0E0,0E0],"parents":[2147483647,0,0,1,1,2,2,3,3,4,4,5,5,6,6,8,8,9,9,10,10,11,11,12,12],"right_children":[2,4,6,8,10,12,14,-1,16,18,20,22,24,-1,-1,-1,-1,-1,-1,-1,-1,-1,-1,-1,-1],"split_conditions":[1.9666522E0,-6.683366E-2,7.805469E-1,-3.3679419E0,1.4492961E0,-1.3237942E-2,2.335758E-1,-5.719824E-4,1.3012264E0,1.5736046E0,-3.8136095E-2,-6.4757437E-1,1.03005484E-1,6.670545E-4,1.9386271E-4,2.4187711E-5,3.3614037E-4,-6.8648835E-5,-3.0786602E-4,2.5309722E-5,6.829131E-4,3.1673143E-4,1.00522804E-4,9.424268E-5,-1.9137286E-4],"split_indices":[142,116,114,156,276,190,212,0,198,93,204,16,9,0,0,0,0,0,0,0,0,0,0,0,0],"split_type":[0,0,0,0,0,0,0,0,0,0,0,0,0,0,0,0,0,0,0,0,0,0,0,0,0],"sum_hessian":[7.81E2,7.57E2,2.4E1,4.73E2,2.84E2,1.6E1,8E0,3E0,4.7E2,2.18E2,6.6E1,8E0,8E0,6E0,2E0,4.57E2,1.3E1,1.82E2,3.6E1,5.9E1,7E0,3E0,5E0,1E0,7E0],"tree_param":{"num_deleted":"0","num_feature":"280","num_nodes":"25","size_leaf_vector":"1"}},{"base_weights":[-1.1720391E-4,-1.980828E-3,4.1007897E-4,8.0050546E-4,-3.378642E-3,7.4549452E-3,6.14611E-5,-6.6296547E-3,1.973321E-3,-2.5334565E-3,-1.56945E-2,4.251192E-3,8.229447E-4,1.3038973E-4,-6.470293E-4,-4.7240846E-4,6.0862978E-5,3.477431E-5,3.5075558E-4,-5.0107803E-4,-8.245272E-5,-8.405112E-4,-2.2500427E-4,-7.790138E-5,3.8410167E-4,1.6972908E-5,-2.0240321E-4],"categories":[],"categories_nodes":[],"categories_segments":[],"categories_sizes":[],"default_left":[0,0,0,0,0,0,0,0,0,0,0,0,0,0,0,0,0,0,0,0,0,0,0,0,0,0,0],"id":41,"left_children":[1,3,5,7,9,11,13,15,17,19,21,23,-1,25,-1,-1,-1,-1,-1,-1,-1,-1,-1,-1,-1,-1,-1],"loss_changes":[7.486143E-4,6.5585284E-4,1.4583858E-3,5.0979224E-4,1.1260674E-3,7.3772995E-4,5.098403E-4,1.8843397E-4,3.1724985E-4,6.854583E-4,1.178158E-5,4.5044E-4,0E0,4.9494836E-4,0E0,0E0,0E0,0E0,0E0,0E0,0E0,0E0,0E0,0E0,0E0,0E0,0E0],"parents":[2147483647,0,0,1,1,2,2,3,3,4,4,5,5,6,6,7,7,8,8,9,9,10,10,11,11,13,13],"right_children":[2,4,6,8,10,12,14,16,18,20,22,24,-1,26,-1,-1,-1,-1,-1,-1,-1,-1,-1,-1,-1,-1,-1],"split_conditions":[3.5306178E-2,-8.852889E-3,-1.5513414E0,-1.1258184E0,7.957564E-3,1.4535004E0,5.107449E0,2.9426488E-1,-9.647981E-2,-1.50518E0,1.4546252E0,-8.739444E-2,8.229447E-4,1.7748275E0,-6.470293E-4,-4.7240846E-4,6.0862978E-5,3.477431E-5,3.5075558E-4,-5.0107803E-4,-8.245272E-5,-8.405112E-4,-2.2500427E-4,-7.790138E-5,3.8410167E-4,1.6972908E-5,-2.0240321E-4],"split_indices":[246,218,100,215,106,198,267,1,228,7,3,228,0,114,0,0,0,0,0,0,0,0,0,0,0,0,0],"split_type":[0,0,0,0,0,0,0,0,0,0,0,0,0,0,0,0,0,0,0,0,0,0,0,0,0,0,0],"sum_hessian":[7.6E2,1.67E2,5.93E2,5.6E1,1.11E2,2.7E1,5.66E2,7E0,4.9E1,1.05E2,6E0,2.1E1,6E0,5.64E2,2E0,5E0,2E0,4E1,9E0,1E1,9.5E1,5E0,1E0,8E0,1.3E1,5.38E2,2.6E1],"tree_param":{"num_deleted":"0","num_feature":"280","num_nodes":"27","size_leaf_vector":"1"}},{"base_weights":[1.16064315E-4,-3.1061223E-5,4.187688E-3,5.703585E-5,-6.5383287E-3,6.5115455E-4,1.0134679E-2,-1.6229141E-4,3.2178157E-3,-9.406432E-4,-7.349848E-4,2.50456E-3,-2.3343058E-4,1.1831826E-2,1.1153652E-4,8.314483E-6,-1.2245815E-4,2.8996516E-4,-1.1538082E-4,-1.763661E-4,9.405982E-5,1.6388085E-4,-7.112603E-5,1.5180133E-4,6.327325E-4],"categories":[],"categories_nodes":[],"categories_segments":[],"categories_sizes":[],"default_left":[0,0,0,0,0,0,0,0,0,0,0,0,0,0,0,0,0,0,0,0,0,0,0,0,0],"id":42,"left_children":[1,3,5,7,9,11,13,15,17,19,-1,21,-1,23,-1,-1,-1,-1,-1,-1,-1,-1,-1,-1,-1],"loss_changes":[4.6378688E-4,4.2917978E-4,5.612576E-4,5.1283033E-4,4.4302052E-4,1.8916711E-4,1.07748085E-4,5.2039186E-4,6.980466E-4,5.7729936E-5,0E0,4.7164467E-5,0E0,1.947931E-5,0E0,0E0,0E0,0E0,0E0,0E0,0E0,0E0,0E0,0E0,0E0],"parents":[2147483647,0,0,1,1,2,2,3,3,4,4,5,5,6,6,7,7,8,8,9,9,11,11,13,13],"right_children":[2,4,6,8,10,12,14,16,18,20,-1,22,-1,24,-1,-1,-1,-1,-1,-1,-1,-1,-1,-1,-1],"split_conditions":[1.9666522E0,3.4779758E0,9.4090134E-1,1.108067E0,7.956258E-3,-2.004693E-1,1.297741E-1,1.1559222E0,1.316389E-1,6.0617346E-1,-7.349848E-4,6.821546E-1,-2.3343058E-4,-2.4520595E0,1.1153652E-4,8.314483E-6,-1.2245815E-4,2.8996516E-4,-1.1538082E-4,-1.763661E-4,9.405982E-5,1.6388085E-4,-7.112603E-5,1.5180133E-4,6.327325E-4],"split_indices":[142,1,114,2,106,274,6,228,57,57,0,198,0,2,0,0,0,0,0,0,0,0,0,0,0],"split_type":[0,0,0,0,0,0,0,0,0,0,0,0,0,0,0,0,0,0,0,0,0,0,0,0,0],"sum_hessian":[7.73E2,7.47E2,2.6E1,7.38E2,9E0,1.7E1,9E0,6.91E2,4.7E1,6E0,3E0,1.3E1,4E0,7E0,2E0,6.05E2,8.6E1,3.2E1,1.5E1,3E0,3E0,1.1E1,2E0,1E0,6E0],"tree_param":{"num_deleted":"0","num_feature":"280","num_nodes":"25","size_leaf_vector":"1"}},{"base_weights":[-2.2110663E-4,7.915129E-5,-2.6415472E-3,4.2923996E-3,-1.5113111E-4,-7.2094277E-3,-1.9105672E-4,2.2865564E-3,8.1356586E-4,-4.5007368E-4,2.7346557E-3,-1.2979882E-2,-1.3490375E-3,5.1111723E-3,-1.5700934E-3,1.7691932E-4,-1.8638851E-4,1.9436425E-6,-1.4725477E-4,8.680915E-4,7.1327166E-5,-1.4367323E-4,-8.1968587E-4,1.9136054E-4,-2.9001271E-4,-1.0483141E-4,3.8733656E-4,4.877672E-7,-3.0235722E-4],"categories":[],"categories_nodes":[],"categories_segments":[],"categories_sizes":[],"default_left":[0,0,0,0,0,0,0,0,0,0,0,0,0,0,0,0,0,0,0,0,0,0,0,0,0,0,0,0,0],"id":43,"left_children":[1,3,5,7,9,11,13,15,-1,17,19,21,23,25,27,-1,-1,-1,-1,-1,-1,-1,-1,-1,-1,-1,-1,-1,-1],"loss_changes":[5.6635233E-4,6.7399314E-4,9.612677E-4,8.277967E-4,5.697399E-4,9.97003E-4,4.2480722E-4,2.541155E-4,0E0,7.2963396E-4,1.1615399E-3,4.7041778E-4,3.9084844E-4,2.4420096E-4,3.2541994E-4,0E0,0E0,0E0,0E0,0E0,0E0,0E0,0E0,0E0,0E0,0E0,0E0,0E0,0E0],"parents":[2147483647,0,0,1,1,2,2,3,3,4,4,5,5,6,6,7,7,9,9,10,10,11,11,12,12,13,13,14,14],"right_children":[2,4,6,8,10,12,14,16,-1,18,20,22,24,26,28,-1,-1,-1,-1,-1,-1,-1,-1,-1,-1,-1,-1,-1,-1],"split_conditions":[8.094419E-1,-1.084655E0,-4.116863E-1,-1.0897593E0,1.6606685E0,-2.062228E-1,-1.0571954E0,1.0734843E0,8.1356586E-4,2.9627448E-1,-9.271636E-1,-1.4367509E0,-5.792461E-1,-5.883065E-1,8.346323E-2,1.7691932E-4,-1.8638851E-4,1.9436425E-6,-1.4725477E-4,8.680915E-4,7.1327166E-5,-1.4367323E-4,-8.1968587E-4,1.9136054E-4,-2.9001271E-4,-1.0483141E-4,3.8733656E-4,4.877672E-7,-3.0235722E-4],"split_indices":[240,3,184,0,200,44,215,16,0,99,30,47,16,1,197,0,0,0,0,0,0,0,0,0,0,0,0,0,0],"split_type":[0,0,0,0,0,0,0,0,0,0,0,0,0,0,0,0,0,0,0,0,0,0,0,0,0,0,0,0,0],"sum_hessian":[7.78E2,6.93E2,8.5E1,3.5E1,6.58E2,2.9E1,5.6E1,3.1E1,4E0,5.97E2,6.1E1,1.4E1,1.5E1,1.1E1,4.5E1,2.6E1,5E0,5E2,9.7E1,4E0,5.7E1,4E0,1E1,7E0,8E0,3E0,8E0,3.4E1,1.1E1],"tree_param":{"num_deleted":"0","num_feature":"280","num_nodes":"29","size_leaf_vector":"1"}},{"base_weights":[1.8294317E-4,6.6302856E-3,5.2535255E-5,-2.3827038E-3,1.290369E-2,-1.620861E-3,5.1456655E-4,1.5297378E-3,-2.849735E-4,-3.5941786E-5,7.3481805E-4,-1.5551278E-4,-5.6384327E-3,3.6223995E-4,7.165639E-3,1.08290194E-4,-9.461502E-6,5.5301487E-5,-1.4368483E-4,-6.57663E-4,-9.7178265E-5,2.8639022E-5,-1.6618583E-4,5.58142E-4,3.2088243E-5],"categories":[],"categories_nodes":[],"categories_segments":[],"categories_sizes":[],"default_left":[0,0,0,0,0,0,0,0,0,0,0,0,0,0,0,0,0,0,0,0,0,0,0,0,0],"id":44,"left_children":[1,3,5,7,9,11,13,15,-1,-1,-1,17,19,21,23,-1,-1,-1,-1,-1,-1,-1,-1,-1,-1],"loss_changes":[6.3612557E-4,8.7887753E-4,5.75293E-4,9.955526E-5,2.3035053E-4,9.4695296E-4,5.8806234E-4,4.7833437E-6,0E0,0E0,0E0,4.1124175E-4,1.1683862E-3,4.4502437E-4,3.3184013E-4,0E0,0E0,0E0,0E0,0E0,0E0,0E0,0E0,0E0,0E0],"parents":[2147483647,0,0,1,1,2,2,3,3,4,4,5,5,6,6,7,7,11,11,12,12,13,13,14,14],"right_children":[2,4,6,8,10,12,14,16,-1,-1,-1,18,20,22,24,-1,-1,-1,-1,-1,-1,-1,-1,-1,-1],"split_conditions":[-2.586231E0,3.5305593E-2,-6.4691144E-1,5.843659E-1,-1.0727646E0,-1.5716817E-2,2.7500942E0,1.3063165E0,-2.849735E-4,-3.5941786E-5,7.3481805E-4,1.5046056E-2,-3.284905E-1,1.5904728E0,4.0110674E0,1.08290194E-4,-9.461502E-6,5.5301487E-5,-1.4368483E-4,-6.57663E-4,-9.7178265E-5,2.8639022E-5,-1.6618583E-4,5.58142E-4,3.2088243E-5],"split_indices":[100,246,38,1,3,200,197,3,0,0,0,92,244,143,197,0,0,0,0,0,0,0,0,0,0],"split_type":[0,0,0,0,0,0,0,0,0,0,0,0,0,0,0,0,0,0,0,0,0,0,0,0,0],"sum_hessian":[7.56E2,1.4E1,7.42E2,6E0,8E0,1.6E2,5.82E2,3E0,3E0,1E0,7E0,1.18E2,4.2E1,5.7E2,1.2E1,2E0,1E0,8.1E1,3.7E1,1.3E1,2.9E1,5.4E2,3E1,7E0,5E0],"tree_param":{"num_deleted":"0","num_feature":"280","num_nodes":"25","size_leaf_vector":"1"}},{"base_weights":[2.2130576E-5,1.1966558E-3,-6.6585076E-4,1.4676629E-3,-7.337526E-3,6.136077E-3,-8.6409214E-4,1.0079972E-3,5.901795E-3,-1.2672057E-3,-5.9701706E-4,5.9549365E-4,2.6355714E-3,-3.60354E-4,-2.8085453E-3,2.6094121E-5,2.1238391E-4,9.4518875E-4,5.2800588E-5,2.9838033E-5,-9.4119365E-5,2.0640215E-4,-3.1757347E-5,-3.1438012E-5,2.5362617E-4,-2.0764107E-4,1.4996917E-4],"categories":[],"categories_nodes":[],"categories_segments":[],"categories_sizes":[],"default_left":[0,0,0,0,0,0,0,0,0,0,0,0,0,0,0,0,0,0,0,0,0,0,0,0,0,0,0],"id":45,"left_children":[1,3,5,7,9,11,13,15,17,19,-1,-1,21,23,25,-1,-1,-1,-1,-1,-1,-1,-1,-1,-1,-1,-1],"loss_changes":[6.2784465E-4,6.7454955E-4,6.6602963E-4,5.6271383E-4,2.3633416E-4,2.5156752E-4,4.6620713E-4,3.9779677E-4,1.6181618E-3,6.856725E-6,0E0,0E0,5.1436466E-5,5.573122E-4,7.77587E-4,0E0,0E0,0E0,0E0,0E0,0E0,0E0,0E0,0E0,0E0,0E0,0E0],"parents":[2147483647,0,0,1,1,2,2,3,3,4,4,5,5,6,6,7,7,8,8,9,9,12,12,13,13,14,14],"right_children":[2,4,6,8,10,12,14,16,18,20,-1,-1,22,24,26,-1,-1,-1,-1,-1,-1,-1,-1,-1,-1,-1,-1],"split_conditions":[2.237863E-2,2.458505E0,-1.7837464E0,9.1559255E-1,-2.6163635E-1,-1.166404E0,2.191194E-1,1.1712182E0,-8.892582E-1,9.531382E-1,-5.9701706E-4,5.9549365E-4,4.2766628E-1,4.8343658E-1,1.4492961E0,2.6094121E-5,2.1238391E-4,9.4518875E-4,5.2800588E-5,2.9838033E-5,-9.4119365E-5,2.0640215E-4,-3.1757347E-5,-3.1438012E-5,2.5362617E-4,-2.0764107E-4,1.4996917E-4],"split_indices":[162,270,198,268,243,100,183,200,107,0,0,0,29,267,192,0,0,0,0,0,0,0,0,0,0,0,0],"split_type":[0,0,0,0,0,0,0,0,0,0,0,0,0,0,0,0,0,0,0,0,0,0,0,0,0,0,0],"sum_hessian":[7.75E2,2.86E2,4.89E2,2.78E2,8E0,1.3E1,4.76E2,2.53E2,2.5E1,4E0,4E0,4E0,9E0,3.79E2,9.7E1,2.21E2,3.2E1,6E0,1.9E1,1E0,3E0,6E0,3E0,3.62E2,1.7E1,7.9E1,1.8E1],"tree_param":{"num_deleted":"0","num_feature":"280","num_nodes":"27","size_leaf_vector":"1"}},{"base_weights":[6.2551495E-5,2.2987924E-4,-4.6311393E-3,7.7424822E-3,1.4943829E-4,-7.106424E-4,-1.8074396E-3,5.773021E-4,1.5755689E-4,3.5128198E-3,-1.5181528E-5,-2.9456115E-3,1.3257336E-4,4.112504E-4,-2.1628588E-5,-1.9701985E-4,6.6266534E-6,-2.4691282E-4,-4.28835E-5],"categories":[],"categories_nodes":[],"categories_segments":[],"categories_sizes":[],"default_left":[0,0,0,0,0,0,0,0,0,0,0,0,0,0,0,0,0,0,0],"id":46,"left_children":[1,3,5,7,9,-1,11,-1,-1,13,15,17,-1,-1,-1,-1,-1,-1,-1],"loss_changes":[6.1602076E-4,4.5631384E-4,7.0481957E-4,1.0332448E-4,4.153128E-4,0E0,1.19460245E-4,0E0,0E0,6.5425783E-4,4.156674E-4,7.065409E-5,0E0,0E0,0E0,0E0,0E0,0E0,0E0],"parents":[2147483647,0,0,1,1,2,2,3,3,4,4,6,6,9,9,10,10,11,11],"right_children":[2,4,6,8,10,-1,12,-1,-1,14,16,18,-1,-1,-1,-1,-1,-1,-1],"split_conditions":[1.7748275E0,-2.9966388E0,-3.231528E-1,5.0802663E-2,3.9308656E-2,-7.106424E-4,2.2726389E-2,5.773021E-4,1.5755689E-4,-1.0138099E-1,-1.6927347E0,-2.2097361E-1,1.3257336E-4,4.112504E-4,-2.1628588E-5,-1.9701985E-4,6.6266534E-6,-2.4691282E-4,-4.28835E-5],"split_indices":[114,184,187,114,36,0,78,0,0,271,103,44,0,0,0,0,0,0,0],"split_type":[0,0,0,0,0,0,0,0,0,0,0,0,0,0,0,0,0,0,0],"sum_hessian":[7.82E2,7.56E2,2.6E1,7E0,7.49E2,5E0,2.1E1,3E0,4E0,3.4E1,7.15E2,1.7E1,4E0,1.5E1,1.9E1,2.5E1,6.9E2,8E0,9E0],"tree_param":{"num_deleted":"0","num_feature":"280","num_nodes":"19","size_leaf_vector":"1"}},{"base_weights":[-8.885804E-5,7.5066064E-6,-9.59376E-3,-8.277228E-5,6.4084185E-3,-7.444553E-4,-5.761371E-4,1.8340555E-3,-3.9025318E-4,9.995892E-4,6.349548E-4,1.1235186E-4,-2.2662075E-3,-1.615696E-5,2.6835545E-4,7.705916E-5,-4.0183888E-5,1.17199495E-4,-7.871377E-5,-2.0370342E-5,-1.4959523E-4],"categories":[],"categories_nodes":[],"categories_segments":[],"categories_sizes":[],"default_left":[0,0,0,0,0,0,0,0,0,0,0,0,0,0,0,0,0,0,0,0,0],"id":47,"left_children":[1,3,5,7,9,-1,11,13,15,17,-1,-1,19,-1,-1,-1,-1,-1,-1,-1,-1],"loss_changes":[7.300734E-4,4.5704556E-4,3.7343323E-4,4.6043828E-4,3.615833E-4,0E0,2.4177705E-5,8.248547E-4,5.3863134E-4,2.7912221E-5,0E0,0E0,2.8278555E-6,0E0,0E0,0E0,0E0,0E0,0E0,0E0,0E0],"parents":[2147483647,0,0,1,1,2,2,3,3,4,4,6,6,7,7,8,8,9,9,12,12],"right_children":[2,4,6,8,10,-1,12,14,16,18,-1,-1,20,-1,-1,-1,-1,-1,-1,-1,-1],"split_conditions":[3.809313E0,3.7950013E0,4.4430858E-1,-1.3238069E-2,-3.3412417E-3,-7.444553E-4,-3.2756504E-1,4.9351668E-1,3.3365462E-2,2.8093547E-1,6.349548E-4,1.1235186E-4,-1.0393722E0,-1.615696E-5,2.6835545E-4,7.705916E-5,-4.0183888E-5,1.17199495E-4,-7.871377E-5,-2.0370342E-5,-1.4959523E-4],"split_indices":[2,18,158,190,8,0,5,47,64,30,0,0,0,0,0,0,0,0,0,0,0],"split_type":[0,0,0,0,0,0,0,0,0,0,0,0,0,0,0,0,0,0,0,0,0],"sum_hessian":[7.96E2,7.89E2,7E0,7.79E2,1E1,4E0,3E0,1.07E2,6.72E2,6E0,4E0,1E0,2E0,6.7E1,4E1,1.18E2,5.54E2,4E0,2E0,1E0,1E0],"tree_param":{"num_deleted":"0","num_feature":"280","num_nodes":"21","size_leaf_vector":"1"}},{"base_weights":[7.751427E-5,-6.8458156E-3,1.5628953E-4,-8.1731053E-4,6.287508E-4,3.6435698E-3,-2.9659212E-5,1.6175986E-3,-1.078872E-4,1.4074366E-3,1.0211226E-2,4.9302587E-3,-2.0017957E-4,1.5995029E-6,1.0030016E-4,1.3790662E-4,-2.3400753E-4,6.014676E-4,9.7957454E-5,1.1306932E-5,4.627564E-4,2.158526E-6,-1.9446223E-4],"categories":[],"categories_nodes":[],"categories_segments":[],"categories_sizes":[],"default_left":[0,0,0,0,0,0,0,0,0,0,0,0,0,0,0,0,0,0,0,0,0,0,0],"id":48,"left_children":[1,3,5,-1,7,9,11,13,-1,15,17,19,21,-1,-1,-1,-1,-1,-1,-1,-1,-1,-1],"loss_changes":[4.3628883E-4,6.493797E-4,5.1238784E-4,0E0,2.0022879E-5,5.7307445E-4,6.3615787E-4,3.0151168E-6,0E0,2.678053E-4,1.2646592E-4,5.0652475E-4,6.528207E-4,0E0,0E0,0E0,0E0,0E0,0E0,0E0,0E0,0E0,0E0],"parents":[2147483647,0,0,1,1,2,2,4,4,5,5,6,6,7,7,9,9,10,10,11,11,12,12],"right_children":[2,4,6,-1,8,10,12,14,-1,16,18,20,22,-1,-1,-1,-1,-1,-1,-1,-1,-1,-1],"split_conditions":[3.9644614E-2,-2.2097361E-1,3.9308656E-2,-8.1731053E-4,3.7004694E-4,1.2782384E0,-1.909448E0,-5.0430673E-1,-1.078872E-4,1.2510906E0,1.586186E0,6.320043E-3,7.957253E-3,1.5995029E-6,1.0030016E-4,1.3790662E-4,-2.3400753E-4,6.014676E-4,9.7957454E-5,1.1306932E-5,4.627564E-4,2.158526E-6,-1.9446223E-4],"split_indices":[260,44,36,0,2,140,198,6,0,238,88,176,106,0,0,0,0,0,0,0,0,0,0],"split_type":[0,0,0,0,0,0,0,0,0,0,0,0,0,0,0,0,0,0,0,0,0,0,0],"sum_hessian":[7.97E2,8E0,7.89E2,3E0,5E0,3.9E1,7.5E2,4E0,1E0,3E1,9E0,2.4E1,7.26E2,1E0,3E0,2.5E1,5E0,7E0,2E0,1.2E1,1.2E1,6.82E2,4.4E1],"tree_param":{"num_deleted":"0","num_feature":"280","num_nodes":"23","size_leaf_vector":"1"}},{"base_weights":[4.4088018E-5,2.0190488E-4,-3.438463E-3,5.59373E-4,-1.6427618E-3,2.3122731E-4,-1.0185498E-2,2.638475E-4,3.3575422E-3,-1.3197967E-3,-1.0840286E-2,-5.1464443E-3,4.055905E-3,-1.4463006E-2,1.985271E-3,1.6347558E-5,-5.885864E-4,2.9025416E-5,6.220309E-4,-1.2431893E-4,2.9278495E-5,-6.119343E-4,-1.6612715E-4,-4.964095E-4,-8.394062E-5,4.494415E-6,2.5646872E-4,-7.608977E-4,-2.1058568E-4,2.6355917E-4,-4.335472E-5],"categories":[],"categories_nodes":[],"categories_segments":[],"categories_sizes":[],"default_left":[0,0,0,0,0,0,0,0,0,0,0,0,0,0,0,0,0,0,0,0,0,0,0,0,0,0,0,0,0,0,0],"id":49,"left_children":[1,3,5,7,9,11,13,15,17,19,21,23,25,27,29,-1,-1,-1,-1,-1,-1,-1,-1,-1,-1,-1,-1,-1,-1,-1,-1],"loss_changes":[4.3103515E-4,4.9547607E-4,8.4417907E-4,5.192533E-4,3.4809153E-4,4.939343E-4,6.534398E-4,4.3675734E-4,1.5062185E-3,2.6596512E-4,1.3876415E-6,1.4914572E-4,5.914246E-5,5.558948E-6,4.2061103E-5,0E0,0E0,0E0,0E0,0E0,0E0,0E0,0E0,0E0,0E0,0E0,0E0,0E0,0E0,0E0,0E0],"parents":[2147483647,0,0,1,1,2,2,3,3,4,4,5,5,6,6,7,7,8,8,9,9,10,10,11,11,12,12,13,13,14,14],"right_children":[2,4,6,8,10,12,14,16,18,20,22,24,26,28,30,-1,-1,-1,-1,-1,-1,-1,-1,-1,-1,-1,-1,-1,-1,-1,-1],"split_conditions":[7.957765E-3,5.354159E-1,1.0662082E-2,-3.8136795E-2,2.8791654E0,-3.3411598E-3,1.946535E-1,5.107449E0,2.8827316E-1,1.0773287E0,1.38992E0,-5.275236E-1,-7.6319194E-1,1.4092426E0,1.2374663E0,1.6347558E-5,-5.885864E-4,2.9025416E-5,6.220309E-4,-1.2431893E-4,2.9278495E-5,-6.119343E-4,-1.6612715E-4,-4.964095E-4,-8.394062E-5,4.494415E-6,2.5646872E-4,-7.608977E-4,-2.1058568E-4,2.6355917E-4,-4.335472E-5],"split_indices":[106,30,200,204,160,8,86,267,268,56,0,172,43,44,0,0,0,0,0,0,0,0,0,0,0,0,0,0,0,0,0],"split_type":[0,0,0,0,0,0,0,0,0,0,0,0,0,0,0,0,0,0,0,0,0,0,0,0,0,0,0,0,0,0,0],"sum_hessian":[7.82E2,7.49E2,3.3E1,6.28E2,1.21E2,2.2E1,1.1E1,5.69E2,5.9E1,1.18E2,3E0,9E0,1.3E1,8E0,3E0,5.67E2,2E0,4.6E1,1.3E1,7.3E1,4.5E1,2E0,1E0,3E0,6E0,3E0,1E1,7E0,1E0,1E0,2E0],"tree_param":{"num_deleted":"0","num_feature":"280","num_nodes":"31","size_leaf_vector":"1"}},{"base_weights":[4.7777223E-5,3.4679996E-4,-2.1126932E-3,2.264415E-4,7.635256E-3,2.475634E-3,-3.8110092E-3,1.0176951E-2,1.3618622E-4,1.906983E-3,7.063894E-4,-4.3634344E-3,4.7455262E-3,-1.0305944E-2,-2.4015226E-3,1.1013366E-4,6.806711E-4,-2.4524363E-4,1.461435E-5,1.7263874E-4,-6.52499E-5,-3.8885308E-4,7.0525725E-6,6.662978E-5,4.3844097E-4,-7.458782E-5,-8.1943424E-4,1.8693651E-4,-1.6588054E-4],"categories":[],"categories_nodes":[],"categories_segments":[],"categories_sizes":[],"default_left":[0,0,0,0,0,0,0,0,0,0,0,0,0,0,0,0,0,0,0,0,0,0,0,0,0,0,0,0,0],"id":50,"left_children":[1,3,5,7,9,11,13,15,17,19,-1,21,23,25,27,-1,-1,-1,-1,-1,-1,-1,-1,-1,-1,-1,-1,-1,-1],"loss_changes":[4.9946766E-4,5.939084E-4,7.41923E-4,5.994335E-4,3.821595E-4,4.2432942E-4,6.069122E-4,1.3443426E-4,5.23944E-4,3.9261242E-5,0E0,1.0873341E-4,2.6293908E-4,6.189252E-4,3.386544E-4,0E0,0E0,0E0,0E0,0E0,0E0,0E0,0E0,0E0,0E0,0E0,0E0,0E0,0E0],"parents":[2147483647,0,0,1,1,2,2,3,3,4,4,5,5,6,6,7,7,8,8,9,9,11,11,12,12,13,13,14,14],"right_children":[2,4,6,8,10,12,14,16,18,20,-1,22,24,26,28,-1,-1,-1,-1,-1,-1,-1,-1,-1,-1,-1,-1,-1,-1],"split_conditions":[6.5995157E-1,2.4022715E0,-1.0946145E0,-2.80206E0,-1.0687075E0,-1.0416704E0,-9.0834624E-1,-4.2186475E-1,-1.8003532E0,5.941658E-1,7.063894E-4,-1.0813615E0,5.7570404E-1,1.942905E-1,-1.0681676E0,1.1013366E-4,6.806711E-4,-2.4524363E-4,1.461435E-5,1.7263874E-4,-6.52499E-5,-3.8885308E-4,7.0525725E-6,6.662978E-5,4.3844097E-4,-7.458782E-5,-8.1943424E-4,1.8693651E-4,-1.6588054E-4],"split_indices":[211,253,224,258,56,5,103,15,103,9,0,0,261,1,157,0,0,0,0,0,0,0,0,0,0,0,0,0,0],"split_type":[0,0,0,0,0,0,0,0,0,0,0,0,0,0,0,0,0,0,0,0,0,0,0,0,0,0,0,0,0],"sum_hessian":[7.71E2,6.78E2,9.3E1,6.68E2,1E1,2.5E1,6.8E1,5E0,6.63E2,6E0,4E0,6E0,1.9E1,1.1E1,5.7E1,2E0,3E0,1.9E1,6.44E2,4E0,2E0,3E0,3E0,1.1E1,8E0,5E0,6E0,7E0,5E1],"tree_param":{"num_deleted":"0","num_feature":"280","num_nodes":"29","size_leaf_vector":"1"}},{"base_weights":[1.1205346E-4,-1.5013632E-3,5.2857044E-4,3.3269068E-3,-2.3936918E-3,1.8254753E-3,7.311849E-5,6.160799E-3,-1.8234001E-3,-4.7578774E-3,-1.211285E-3,7.8837894E-4,1.0251297E-2,-1.9287127E-3,5.063162E-4,4.5377875E-4,8.7361455E-5,-3.6795132E-4,2.4019233E-5,-4.4402207E-4,-1.0174901E-4,-7.977195E-6,-2.6772486E-4,6.5747176E-5,-2.9446423E-4,8.2351966E-5,9.3362754E-4,1.870391E-5,-4.9131847E-4,1.855838E-5,4.5244573E-4],"categories":[],"categories_nodes":[],"categories_segments":[],"categories_sizes":[],"default_left":[0,0,0,0,0,0,0,0,0,0,0,0,0,0,0,0,0,0,0,0,0,0,0,0,0,0,0,0,0,0,0],"id":51,"left_children":[1,3,5,7,9,11,13,15,17,19,21,23,25,27,29,-1,-1,-1,-1,-1,-1,-1,-1,-1,-1,-1,-1,-1,-1,-1,-1],"loss_changes":[5.370619E-4,7.1454165E-4,3.7494698E-4,3.9071435E-4,3.8280152E-4,1.4337522E-3,4.0942236E-4,2.0284054E-4,1.3106408E-4,4.982931E-4,4.0875887E-4,5.281449E-4,1.2735007E-3,1.5313547E-3,4.4459515E-4,0E0,0E0,0E0,0E0,0E0,0E0,0E0,0E0,0E0,0E0,0E0,0E0,0E0,0E0,0E0,0E0],"parents":[2147483647,0,0,1,1,2,2,3,3,4,4,5,5,6,6,7,7,8,8,9,9,10,10,11,11,12,12,13,13,14,14],"right_children":[2,4,6,8,10,12,14,16,18,20,22,24,26,28,30,-1,-1,-1,-1,-1,-1,-1,-1,-1,-1,-1,-1,-1,-1,-1,-1],"split_conditions":[3.53062E-2,-5.7574236E-1,-3.3460167E-1,-3.8320407E-2,-1.4852978E-1,-3.8137134E-2,-5.707432E-1,6.320341E-3,-1.8098428E0,-4.063586E-1,1.8140043E0,1.7752591E0,-4.9820826E-3,5.7420075E-1,2.910756E0,4.5377875E-4,8.7361455E-5,-3.6795132E-4,2.4019233E-5,-4.4402207E-4,-1.0174901E-4,-7.977195E-6,-2.6772486E-4,6.5747176E-5,-2.9446423E-4,8.2351966E-5,9.3362754E-4,1.870391E-5,-4.9131847E-4,1.855838E-5,4.5244573E-4],"split_indices":[246,44,156,61,240,204,44,176,6,187,4,30,270,275,86,0,0,0,0,0,0,0,0,0,0,0,0,0,0,0,0],"split_type":[0,0,0,0,0,0,0,0,0,0,0,0,0,0,0,0,0,0,0,0,0,0,0,0,0,0,0,0,0,0,0],"sum_hessian":[7.97E2,1.63E2,6.34E2,2.5E1,1.38E2,1.64E2,4.7E2,1.6E1,9E0,4.5E1,9.3E1,1.47E2,1.7E1,8.3E1,3.87E2,9E0,7E0,2E0,7E0,1.7E1,2.8E1,7.5E1,1.8E1,1.37E2,1E1,9E0,8E0,6.5E1,1.8E1,3.82E2,5E0],"tree_param":{"num_deleted":"0","num_feature":"280","num_nodes":"31","size_leaf_vector":"1"}},{"base_weights":[-1.0206655E-4,-1.7853231E-3,3.396107E-4,-5.9371493E-3,-8.208949E-4,-6.0939575E-3,4.6792993E-4,-5.607078E-4,-1.2924749E-2,-2.9147677E-3,6.392336E-4,-9.916218E-3,4.3391154E-4,1.4718108E-4,3.5152754E-3,-1.01044425E-4,1.3482342E-4,-8.8047405E-4,-9.536414E-5,-4.5491684E-5,-3.4370448E-4,1.2844804E-4,-5.8244244E-5,-6.433856E-4,-1.1360253E-4,4.1694983E-4,2.7774488E-6,3.352141E-5,7.063792E-4],"categories":[],"categories_nodes":[],"categories_segments":[],"categories_sizes":[],"default_left":[0,0,0,0,0,0,0,0,0,0,0,0,0,0,0,0,0,0,0,0,0,0,0,0,0,0,0,0,0],"id":52,"left_children":[1,3,5,7,9,11,13,15,17,19,21,23,-1,25,27,-1,-1,-1,-1,-1,-1,-1,-1,-1,-1,-1,-1,-1,-1],"loss_changes":[5.723241E-4,6.3578854E-4,5.064373E-4,1.1198057E-3,4.0237262E-4,7.6361303E-4,5.8496476E-4,9.105844E-5,6.3739414E-4,4.224074E-4,2.7454612E-4,1.9638089E-4,0E0,4.071307E-4,1.711381E-3,0E0,0E0,0E0,0E0,0E0,0E0,0E0,0E0,0E0,0E0,0E0,0E0,0E0,0E0],"parents":[2147483647,0,0,1,1,2,2,3,3,4,4,5,5,6,6,7,7,8,8,9,9,10,10,11,11,13,13,14,14],"right_children":[2,4,6,8,10,12,14,16,18,20,22,24,-1,26,28,-1,-1,-1,-1,-1,-1,-1,-1,-1,-1,-1,-1,-1,-1],"split_conditions":[3.5306178E-2,-7.607537E-1,-2.4520595E0,-6.225424E-1,-3.290171E-1,9.419816E-1,7.956655E-3,-2.0174725E-1,-8.265523E-2,9.979041E-1,4.443353E-1,-4.716233E-1,4.3391154E-4,-2.2803788E0,6.754206E-1,-1.01044425E-4,1.3482342E-4,-8.8047405E-4,-9.536414E-5,-4.5491684E-5,-3.4370448E-4,1.2844804E-4,-5.8244244E-5,-6.433856E-4,-1.1360253E-4,4.1694983E-4,2.7774488E-6,3.352141E-5,7.063792E-4],"split_indices":[246,201,2,239,169,74,106,1,100,14,116,89,0,100,268,0,0,0,0,0,0,0,0,0,0,0,0,0,0],"split_type":[0,0,0,0,0,0,0,0,0,0,0,0,0,0,0,0,0,0,0,0,0,0,0,0,0,0,0,0,0],"sum_hessian":[7.68E2,1.59E2,6.09E2,2.9E1,1.3E2,1.1E1,5.98E2,1.7E1,1.2E1,5.3E1,7.7E1,9E0,2E0,5.42E2,5.6E1,1.2E1,5E0,8E0,4E0,3.6E1,1.7E1,3.7E1,4E1,6E0,3E0,5E0,5.37E2,4.5E1,1.1E1],"tree_param":{"num_deleted":"0","num_feature":"280","num_nodes":"29","size_leaf_vector":"1"}},{"base_weights":[5.1901763E-5,1.0268324E-2,-1.4592401E-5,1.6782822E-3,7.717795E-4,8.940736E-5,-5.629537E-3,1.310804E-4,-5.2092278E-6,3.576873E-3,-8.4848085E-5,-2.4344358E-3,-6.504341E-4,8.6035165E-5,4.92919E-4,1.18068765E-5,-1.2775142E-4,-2.1592282E-4,9.711073E-5],"categories":[],"categories_nodes":[],"categories_segments":[],"categories_sizes":[],"default_left":[0,0,0,0,0,0,0,0,0,0,0,0,0,0,0,0,0,0,0],"id":53,"left_children":[1,3,5,7,-1,9,11,-1,-1,13,15,17,-1,-1,-1,-1,-1,-1,-1],"loss_changes":[5.252738E-4,1.960299E-4,4.4956311E-4,5.317471E-6,0E0,4.5973217E-4,2.9841083E-4,0E0,0E0,4.027802E-4,5.722787E-4,9.9090066E-5,0E0,0E0,0E0,0E0,0E0,0E0,0E0],"parents":[2147483647,0,0,1,1,2,2,3,3,5,5,6,6,9,9,10,10,11,11],"right_children":[2,4,6,8,-1,10,12,-1,-1,14,16,18,-1,-1,-1,-1,-1,-1,-1],"split_conditions":[-2.0367205E0,-4.1001797E-1,-3.81341E-2,-4.6953788E-1,7.717795E-4,3.9308656E-2,-2.4166214E-1,1.310804E-4,-5.2092278E-6,1.2782384E0,7.532187E-1,3.1434727E-1,-6.504341E-4,8.6035165E-5,4.92919E-4,1.18068765E-5,-1.2775142E-4,-2.1592282E-4,9.711073E-5],"split_indices":[215,1,204,1,0,36,186,0,0,140,240,1,0,0,0,0,0,0,0],"split_type":[0,0,0,0,0,0,0,0,0,0,0,0,0,0,0,0,0,0,0],"sum_hessian":[7.72E2,4E0,7.68E2,2E0,2E0,7.55E2,1.3E1,1E0,1E0,3.5E1,7.2E2,1E1,3E0,2.8E1,7E0,6.38E2,8.2E1,7E0,3E0],"tree_param":{"num_deleted":"0","num_feature":"280","num_nodes":"19","size_leaf_vector":"1"}},{"base_weights":[-4.47557E-5,2.2966128E-4,-1.9130878E-3,1.4055982E-4,8.788778E-3,-3.5805935E-3,5.738252E-4,6.5186354E-3,4.4581866E-5,8.783111E-4,7.251026E-4,-8.627611E-3,-1.2121664E-3,-4.529419E-3,2.3661433E-3,-1.970164E-5,5.596377E-4,1.5758433E-5,-1.0146621E-4,8.876453E-5,-4.5315683E-5,-1.7894941E-4,-7.5610477E-4,-1.6667113E-4,6.439433E-5,1.8240132E-4,-3.3759826E-4,2.2140004E-4,3.155121E-5],"categories":[],"categories_nodes":[],"categories_segments":[],"categories_sizes":[],"default_left":[0,0,0,0,0,0,0,0,0,0,0,0,0,0,0,0,0,0,0,0,0,0,0,0,0,0,0,0,0],"id":54,"left_children":[1,3,5,7,9,11,13,15,17,19,-1,21,23,25,27,-1,-1,-1,-1,-1,-1,-1,-1,-1,-1,-1,-1,-1,-1],"loss_changes":[4.0034694E-4,5.181156E-4,4.1674878E-4,4.1291377E-4,3.036253E-4,7.0675154E-4,3.8572942E-4,3.2751655E-4,3.7437983E-4,8.012056E-6,0E0,5.6885404E-4,2.2702971E-4,2.2455359E-4,1.0811043E-4,0E0,0E0,0E0,0E0,0E0,0E0,0E0,0E0,0E0,0E0,0E0,0E0,0E0,0E0],"parents":[2147483647,0,0,1,1,2,2,3,3,4,4,5,5,6,6,7,7,8,8,9,9,11,11,12,12,13,13,14,14],"right_children":[2,4,6,8,10,12,14,16,18,20,-1,22,24,26,28,-1,-1,-1,-1,-1,-1,-1,-1,-1,-1,-1,-1,-1,-1],"split_conditions":[6.5995157E-1,3.4056125E0,-1.563722E-2,-2.5768127E0,-1.3427381E-2,-4.8150158E-1,-4.493491E-3,-4.1001797E-1,1.4326298E0,1.8373348E0,7.251026E-4,5.9176904E-1,1.5850262E-1,-6.688458E-1,-1.05616406E-1,-1.970164E-5,5.596377E-4,1.5758433E-5,-1.0146621E-4,8.876453E-5,-4.5315683E-5,-1.7894941E-4,-7.5610477E-4,-1.6667113E-4,6.439433E-5,1.8240132E-4,-3.3759826E-4,2.2140004E-4,3.155121E-5],"split_indices":[211,239,88,272,47,30,29,1,266,1,0,65,268,1,117,0,0,0,0,0,0,0,0,0,0,0,0,0,0],"split_type":[0,0,0,0,0,0,0,0,0,0,0,0,0,0,0,0,0,0,0,0,0,0,0,0,0,0,0,0,0],"sum_hessian":[7.79E2,6.8E2,9.9E1,6.74E2,6E0,5.9E1,4E1,9E0,6.65E2,3E0,3E0,1.8E1,4.1E1,1E1,3E1,4E0,5E0,5.89E2,7.6E1,2E0,1E0,1.1E1,7E0,2.2E1,1.9E1,2E0,8E0,1.3E1,1.7E1],"tree_param":{"num_deleted":"0","num_feature":"280","num_nodes":"29","size_leaf_vector":"1"}},{"base_weights":[8.127125E-5,2.9895448E-3,-7.7761826E-5,4.289257E-3,-9.780176E-3,-2.312781E-3,1.6956266E-4,5.7450994E-3,-6.1771576E-3,-5.711981E-4,-1.2122048E-4,6.022285E-3,-3.28805E-3,1.0510196E-4,7.125711E-4,1.4525453E-4,5.9933064E-4,-5.7742272E-5,-4.5702085E-4,3.3770982E-4,2.247267E-5,-1.3599446E-5,-2.9758236E-4,-2.7181298E-4,1.0822637E-5],"categories":[],"categories_nodes":[],"categories_segments":[],"categories_sizes":[],"default_left":[0,0,0,0,0,0,0,0,0,0,0,0,0,0,0,0,0,0,0,0,0,0,0,0,0],"id":55,"left_children":[1,3,5,7,9,11,13,15,17,-1,-1,19,21,23,-1,-1,-1,-1,-1,-1,-1,-1,-1,-1,-1],"loss_changes":[3.56829E-4,7.0582796E-4,4.0502343E-4,5.992742E-4,2.0668842E-5,6.132135E-4,5.976016E-4,5.5013434E-4,6.385628E-5,0E0,0E0,2.9594841E-5,5.285968E-4,4.0718573E-4,0E0,0E0,0E0,0E0,0E0,0E0,0E0,0E0,0E0,0E0,0E0],"parents":[2147483647,0,0,1,1,2,2,3,3,4,4,5,5,6,6,7,7,8,8,11,11,12,12,13,13],"right_children":[2,4,6,8,10,12,14,16,18,-1,-1,20,22,24,-1,-1,-1,-1,-1,-1,-1,-1,-1,-1,-1],"split_conditions":[-1.5513414E0,1.1611797E0,-8.86622E-1,3.9655067E-2,-9.8460144E-1,-8.877644E-1,3.0879793E0,-3.3409412E-3,9.7842425E-1,-5.711981E-4,-1.2122048E-4,1.0873196E0,-8.431696E-2,-2.4522583E0,7.125711E-4,1.4525453E-4,5.9933064E-4,-5.7742272E-5,-4.5702085E-4,3.3770982E-4,2.247267E-5,-1.3599446E-5,-2.9758236E-4,-2.7181298E-4,1.0822637E-5],"split_indices":[100,155,2,260,0,156,100,8,0,0,0,0,197,86,0,0,0,0,0,0,0,0,0,0,0],"split_type":[0,0,0,0,0,0,0,0,0,0,0,0,0,0,0,0,0,0,0,0,0,0,0,0,0],"sum_hessian":[7.7E2,3.9E1,7.31E2,3.6E1,3E0,7.2E1,6.59E2,3.2E1,4E0,2E0,1E0,7E0,6.5E1,6.57E2,2E0,2.3E1,9E0,2E0,2E0,6E0,1E0,3.1E1,3.4E1,1.2E1,6.45E2],"tree_param":{"num_deleted":"0","num_feature":"280","num_nodes":"25","size_leaf_vector":"1"}},{"base_weights":[1.043838E-4,2.7138768E-3,-8.814502E-5,1.4434686E-3,9.997091E-3,-1.8640839E-4,5.466737E-3,-2.0094219E-4,4.4539203E-3,1.2219929E-4,7.0200785E-4,-3.5661735E-5,-3.986104E-3,4.2612935E-4,2.491507E-3,-1.5513637E-4,6.29542E-5,4.784197E-4,7.6276156E-5,1.3405485E-4,-1.3901267E-5,-5.9837376E-4,-8.6534936E-5,3.289222E-5,1.7300679E-4],"categories":[],"categories_nodes":[],"categories_segments":[],"categories_sizes":[],"default_left":[0,0,0,0,0,0,0,0,0,0,0,0,0,0,0,0,0,0,0,0,0,0,0,0,0],"id":56,"left_children":[1,3,5,7,9,11,13,15,17,-1,-1,19,21,-1,23,-1,-1,-1,-1,-1,-1,-1,-1,-1,-1],"loss_changes":[4.0216133E-4,4.9446546E-4,4.082168E-4,2.3851512E-4,2.0998775E-4,4.202868E-4,9.696005E-5,1.3948043E-4,2.4001577E-4,0E0,0E0,4.6626487E-4,4.8332225E-4,0E0,1.1932872E-5,0E0,0E0,0E0,0E0,0E0,0E0,0E0,0E0,0E0,0E0],"parents":[2147483647,0,0,1,1,2,2,3,3,4,4,5,5,6,6,7,7,8,8,11,11,12,12,14,14],"right_children":[2,4,6,8,10,12,14,16,18,-1,-1,20,22,-1,24,-1,-1,-1,-1,-1,-1,-1,-1,-1,-1],"split_conditions":[-1.3238241E-2,7.956822E-3,3.797556E0,-2.228201E-1,-1.0412852E-1,1.7748275E0,1.0865656E0,-2.6985997E-1,-1.1195875E0,1.2219929E-4,7.0200785E-4,-1.0668417E0,-3.231528E-1,4.2612935E-4,-9.8337606E-2,-1.5513637E-4,6.29542E-5,4.784197E-4,7.6276156E-5,1.3405485E-4,-1.3901267E-5,-5.9837376E-4,-8.6534936E-5,3.289222E-5,1.7300679E-4],"split_indices":[190,106,200,169,88,114,182,2,215,0,0,28,187,0,142,0,0,0,0,0,0,0,0,0,0],"split_type":[0,0,0,0,0,0,0,0,0,0,0,0,0,0,0,0,0,0,0,0,0,0,0,0,0],"sum_hessian":[7.99E2,5.4E1,7.45E2,4.7E1,7E0,7.33E2,1.2E1,3.1E1,1.6E1,3E0,4E0,7.06E2,2.7E1,5E0,7E0,1E1,2.1E1,5E0,1.1E1,5.7E1,6.49E2,5E0,2.2E1,3E0,4E0],"tree_param":{"num_deleted":"0","num_feature":"280","num_nodes":"25","size_leaf_vector":"1"}},{"base_weights":[3.055938E-5,-9.9272904E-5,4.396256E-3,1.6215826E-4,-2.6852125E-3,-6.991293E-4,7.9776095E-3,-2.1972894E-3,4.5288654E-4,-8.536013E-3,-1.147096E-3,1.1082516E-3,-1.0443793E-4,5.2156247E-4,3.3764893E-3,-7.462164E-5,-5.812912E-4,2.5607678E-5,-5.7559845E-4,1.12629954E-4,-5.841571E-4,-1.5700397E-4,8.811379E-5,1.0790703E-4,1.5312213E-5,2.4649975E-4,6.8361885E-5],"categories":[],"categories_nodes":[],"categories_segments":[],"categories_sizes":[],"default_left":[0,0,0,0,0,0,0,0,0,0,0,0,0,0,0,0,0,0,0,0,0,0,0,0,0,0,0],"id":57,"left_children":[1,3,5,7,9,11,13,15,17,19,21,23,-1,-1,25,-1,-1,-1,-1,-1,-1,-1,-1,-1,-1,-1,-1],"loss_changes":[4.317776E-4,5.0070893E-4,4.070417E-4,4.62645E-4,6.021548E-4,2.7430764E-5,1.1154235E-4,4.744358E-4,4.3136865E-4,5.016617E-4,3.244418E-4,3.5491748E-6,0E0,0E0,1.1987839E-5,0E0,0E0,0E0,0E0,0E0,0E0,0E0,0E0,0E0,0E0,0E0,0E0],"parents":[2147483647,0,0,1,1,2,2,3,3,4,4,5,5,6,6,7,7,8,8,9,9,10,10,11,11,14,14],"right_children":[2,4,6,8,10,12,14,16,18,20,22,24,-1,-1,26,-1,-1,-1,-1,-1,-1,-1,-1,-1,-1,-1,-1],"split_conditions":[-1.3232941E-2,8.094419E-1,-4.5074233E-1,-1.3144444E0,-5.8936673E-1,-2.1490562E-1,5.0609164E-2,5.134784E-1,2.9584653E0,-6.0158217E-1,1.4122409E-3,-1.0796081E0,-1.0443793E-4,5.2156247E-4,-3.429558E-2,-7.462164E-5,-5.812912E-4,2.5607678E-5,-5.7559845E-4,1.12629954E-4,-5.841571E-4,-1.5700397E-4,8.811379E-5,1.0790703E-4,1.5312213E-5,2.4649975E-4,6.8361885E-5],"split_indices":[190,240,102,215,198,274,99,184,258,114,114,0,0,0,7,0,0,0,0,0,0,0,0,0,0,0,0],"split_type":[0,0,0,0,0,0,0,0,0,0,0,0,0,0,0,0,0,0,0,0,0,0,0,0,0,0,0],"sum_hessian":[7.6E2,7.39E2,2.1E1,6.72E2,6.7E1,9E0,1.2E1,7.3E1,5.99E2,1.3E1,5.4E1,4E0,5E0,7E0,5E0,6.9E1,4E0,5.97E2,2E0,3E0,1E1,3.2E1,2.2E1,1E0,3E0,2E0,3E0],"tree_param":{"num_deleted":"0","num_feature":"280","num_nodes":"27","size_leaf_vector":"1"}},{"base_weights":[-5.554441E-5,-2.1058416E-3,1.5452236E-4,5.833192E-3,-2.9159535E-3,-1.464606E-4,2.259647E-3,3.7531895E-4,1.3508533E-4,-1.4807462E-3,-7.3084296E-3,2.667396E-4,-1.5931003E-3,1.1439175E-2,9.361285E-4,-4.2916094E-5,-5.576715E-4,-6.0134236E-5,-4.9872167E-4,3.384109E-4,6.4068818E-6,2.329616E-4,-1.0084799E-4,6.602252E-5,8.5163343E-4,1.5677634E-4,-1.6672106E-4],"categories":[],"categories_nodes":[],"categories_segments":[],"categories_sizes":[],"default_left":[0,0,0,0,0,0,0,0,0,0,0,0,0,0,0,0,0,0,0,0,0,0,0,0,0,0,0],"id":58,"left_children":[1,3,5,7,9,11,13,-1,-1,15,17,19,21,23,25,-1,-1,-1,-1,-1,-1,-1,-1,-1,-1,-1,-1],"loss_changes":[3.3368662E-4,4.800778E-4,4.4575642E-4,1.639688E-5,4.0524954E-4,3.6864003E-4,1.0584276E-3,0E0,0E0,2.9747302E-4,2.4845084E-4,4.3166918E-4,3.7246267E-4,6.000984E-4,7.4308104E-4,0E0,0E0,0E0,0E0,0E0,0E0,0E0,0E0,0E0,0E0,0E0,0E0],"parents":[2147483647,0,0,1,1,2,2,3,3,4,4,5,5,6,6,9,9,10,10,11,11,12,12,13,13,14,14],"right_children":[2,4,6,8,10,12,14,-1,-1,16,18,20,22,24,26,-1,-1,-1,-1,-1,-1,-1,-1,-1,-1,-1,-1],"split_conditions":[-9.6979105E-1,-1.316891E0,-3.3410504E-3,7.08083E-1,5.950231E-1,-3.3419149E-3,-1.032504E0,3.7531895E-4,1.3508533E-4,1.2350718E0,3.336569E-2,-2.5840857E0,-1.038094E0,-3.1696233E-1,1.7412876E-1,-4.2916094E-5,-5.576715E-4,-6.0134236E-5,-4.9872167E-4,3.384109E-4,6.4068818E-6,2.329616E-4,-1.0084799E-4,6.602252E-5,8.5163343E-4,1.5677634E-4,-1.6672106E-4],"split_indices":[16,58,8,71,197,8,244,0,0,268,64,240,115,142,44,0,0,0,0,0,0,0,0,0,0,0,0],"split_type":[0,0,0,0,0,0,0,0,0,0,0,0,0,0,0,0,0,0,0,0,